Id,0,1,2,3,4,5,6,7,8,9,10,11,12,13,14,15,16,17,18,19,20,21,22,23,24,25,26,27,28,29,30,31,32,33,34,35,36,37,38,39,40,41,42,43,44,45,46,47,48,49,50,51,52,53,54,55,56,57,58,59,60,61,62,63,64,65,66,67,68,69,70,71,72,73,74,75,76,77,78,79,80,81,82,83,84,85,86,87,88,89,90,91,92,93,94,95,96,97,98,99,100,101,102,103,104,105,106,107,108,109,110,111,112,113,114,115,116,117,118,119,120,121,122,123,124,125,126,127,128,129,130,131,132,133,134,135,136,137,138,139,140,141,142,143,144,145,146,147,148,149,150,151,152,153,154,155,156,157,158,159,160,161,162,163,164,165,166,167,168,169,170,171,172,173,174,175,176,177,178,179,180,181,182,183,184,185,186,187,188,189,190,191,192,193,194,195,196,197,198,199,200,201,202,203,204,205,206,207,208,209,210,211,212,213,214,215,216,217,218,219,220,221,222,223,224,225,226,227,228,229,230,231,232,233,234,235,236,237,238,239,240,241,242,243,244,245,246,247,248,249,250,251,252,253,254,255,256,257,258,259,260,261,262,263,264,265,266,267,268,269,270,271,272,273,274,275,276,277,278,279,280,281,282,283,284,285,286,287,288,289,290,291,292,293,294,295,296,297,298,299,300,301,302,303,304,305,306,307,308,309,310,311,312,313,314,315,316,317,318,319,320,321,322,323,324,325,326,327,328,329,330,331,332,333,334,335,336,337,338,339,340,341,342,343,344,345,346,347,348,349,350,351,352,353,354,355,356,357,358,359,360,361,362,363,364,365,366,367,368,369,370,371,372,373,374,375,376,377,378,379,380,381,382,383,384,385,386,387,388,389,390,391,392,393,394,395,396,397,398,399,400,401,402,403,404,405,406,407,408,409,410,411,412,413,414,415,416,417,418,419,420,421,422,423,424,425,426,427,428,429,430,431,432,433,434,435,436,437,438,439,440,441,442,443,444,445,446,447,448,449,450,451,452,453,454,455,456,457,458,459,460,461,462,463,464,465,466,467,468,469,470,471,472,473,474,475,476,477,478,479,480,481,482,483,484,485,486,487,488,489,490,491,492,493,494,495,496,497,498,499,500,501,502,503,504,505,506,507,508,509,510,511,512,513,514,515,516,517,518,519,520,521,522,523,524,525,526,527,528,529,530,531,532,533,534,535,536,537,538,539,540,541,542,543,544,545,546,547,548,549,550,551,552,553,554,555,556,557,558,559,560,561,562,563,564,565,566,567,568,569,570,571,572,573,574,575,576,577,578,579,580,581,582,583,584,585,586,587,588,589,590,591,592,593,594,595,596,597,598,599,600,601,602,603,604,605,606,607,608,609,610,611,612,613,614,615,616,617,618,619,620,621,622,623,624,625,626,627,628,629,630,631,632,633,634,635,636,637,638,639,640,641,642,643,644,645,646,647,648,649,650,651,652,653,654,655,656,657,658,659,660,661,662,663,664,665,666,667,668,669,670,671,672,673,674,675,676,677,678,679,680,681,682,683,684,685,686,687,688,689,690,691,692,693,694,695,696,697,698,699,700,701,702,703,704,705,706,707,708,709,710,711,712,713,714,715,716,717,718,719,720,721,722,723,724,725,726,727,728,729,730,731,732,733,734,735,736,737,738,739,740,741,742,743,744,745,746,747,748,749,750,751,752,753,754,755,756,757,758,759,760,761,762,763,764,765,766,767
0016000000UdeYUIOP,-0.011292535,-0.071542494,-0.0027066744,-0.031627424,0.023892669,0.042039495,-0.008799828,0.02403934,-0.004799624,-0.038461093,0.019133274,-0.003673234,0.027483929,0.098132394,0.03870396,0.00080115517,0.016054811,0.049626727,0.042242218,-0.01612324,-0.057191182,-0.013965211,-0.00368371,-0.009808416,-0.019256983,0.037491057,0.0015006003,0.033989254,0.011616942,-0.036744814,0.08602135,-0.03760428,0.03660587,-0.004033878,2.5191625e-06,-0.04910462,-0.033816695,0.014579019,-0.013330487,-8.3441584e-05,-0.030416997,-0.032443788,0.021504458,-0.0042181946,-0.0121112885,-0.04248916,0.07387004,-0.024839925,0.033804953,-0.02465647,-0.033106517,-0.018292278,-0.10922681,0.006967137,-0.044386756,-0.007472123,0.0051611676,-0.0015824455,-0.036483247,0.009057211,0.018254597,0.0047815847,-0.014408523,0.023181846,0.042577144,0.0033328081,-0.02446165,0.013925408,0.032071535,-0.00220627,-0.0072342013,-0.0041821054,0.019990208,0.04104785,-0.08226072,-0.06691778,-0.02067554,0.007349284,-0.030071022,-0.01469737,-0.047731172,0.009743324,-0.0008064217,0.015428648,-0.00713348,0.048064418,-0.032019053,0.0035370733,-0.010864311,0.060435485,0.026407965,0.0037342908,-0.018105902,-0.022042323,0.021390598,-0.010021324,0.024992475,0.032454863,0.015158496,0.06895955,0.030152416,0.02782636,0.018377258,0.0043029008,0.0039318204,-0.0008377408,0.03873406,-0.06269567,7.1124356e-05,0.045108993,0.011914558,-0.009529591,-0.05560304,0.05365488,-0.0005978764,-0.002847849,0.0111792665,0.032568544,-0.029308086,0.048523538,0.021689082,0.0065403115,0.0005567975,-0.017463993,-0.0073162382,0.011989372,-0.01565773,0.036005292,-0.01852621,-0.041783664,-0.0200531,-0.025808217,0.025028273,0.004705972,-0.033870336,-0.029080464,0.047508832,-0.04836043,-0.08809232,0.0072228066,0.052599892,-0.018850444,-0.06703296,0.021253532,0.00056649325,0.0077342987,-0.017006792,0.06662953,0.01587469,-0.015353861,0.022555556,-0.03529722,-0.0026189205,0.016912257,0.061239272,0.017183006,0.01563155,-0.015081038,0.0328432,-0.01487334,0.011475798,-0.007075153,-0.06255,0.00637895,-0.008015016,0.0058763307,0.111944474,-0.0051682587,-0.10303475,0.0051145395,-0.014448008,-0.06622787,-0.004500371,0.042873148,-0.003554092,-0.00010545804,-0.035890035,0.027895108,0.0005416258,0.08672207,-0.0041489527,-0.105861664,0.009981197,-0.012681289,-0.018296639,0.00016145672,0.06272841,0.042403918,-0.023434978,-0.005330098,-0.015457356,-0.019113874,-0.07596132,0.009382803,0.0115676485,0.021521706,-0.04946242,0.07244352,-0.045822725,0.034835994,0.012847668,-0.01886962,-0.03426055,-0.007205779,0.008645062,-0.015209827,-0.015239735,-0.0011238605,0.008229631,-0.026511928,-0.0068631703,0.017856153,0.04678519,-0.0012294187,-0.033415508,-0.05914291,0.036851827,0.024107417,-0.09815908,0.018492468,-0.038370743,-0.046092894,-0.0039769365,-0.03462619,0.06604111,-0.013661644,-0.011932543,0.036666933,-0.020328937,0.026383296,-0.0042573805,0.0028675515,0.019786315,-0.06399646,0.025640702,0.001371976,0.01760392,0.05898172,-0.016615007,-0.015695838,0.0033745307,0.026084777,0.04422477,-0.04650889,0.057655174,-0.045725178,-0.023999901,-0.028926857,0.0209427,0.0061988095,0.002772006,-0.059886515,0.04703453,0.02019178,0.012935524,-0.057367053,-0.023351204,0.04525381,-0.08686782,-0.025602765,0.025388733,-0.09477623,-0.08837256,-0.047349397,-0.019329747,0.029441677,0.099468276,0.016105058,-0.019417934,-0.017683707,0.041002203,0.06769498,0.042236257,0.0051676524,-0.041415676,0.002707085,0.034216847,0.021921022,-0.038374614,-0.0116620865,-0.0012877517,0.0008091323,-0.059165653,-0.004443586,0.0028801349,0.035847954,-0.005228504,-0.005402945,-0.089211985,0.003060728,0.058964588,-0.03751054,0.018930404,-0.05854052,-0.04203774,0.0038869176,-0.025159968,0.0398902,0.03191534,-0.025997391,-0.018425502,-0.006889944,-0.07064775,-0.024176538,-0.010431257,-0.019744394,0.03101026,-0.02393797,-0.0018265398,0.006231148,0.027635377,0.02966696,0.049265284,0.021383155,0.057361137,-0.01767315,-0.0022139805,-0.018110318,0.013837293,0.017772127,0.012579934,-0.005915428,0.047211956,-0.014176473,-0.036674116,-0.040620245,0.009291002,0.0028355035,-0.043006822,0.022896526,0.010471386,-0.023463484,-0.036970697,0.004268388,0.053974666,0.009326091,0.0012685271,-0.007767708,0.02999153,0.013237887,0.001810314,-0.0020827097,-0.027192816,0.065960854,0.03758292,0.029928146,0.05520884,0.04349206,0.0073262225,0.008160436,0.04153784,0.04088769,-0.021910511,0.015927173,-0.004819157,0.038243264,-0.035765618,0.013944061,0.032789104,0.061324123,0.032309074,-0.029977001,-0.048564326,-0.023258587,-0.007047632,0.036769457,0.025353916,0.0260621,-0.0064401855,-0.008772225,-0.03268845,0.010912964,-0.068403415,-0.030083828,-0.0011763335,0.052661102,-0.020758778,0.0018512004,-0.0030228558,0.021058131,-0.006594524,0.012124712,0.067229815,0.03771061,0.048906043,0.049677126,-0.038733467,-0.0487801,0.038952544,-0.011414672,0.00092654047,0.055473555,-0.042504277,0.05364547,0.03667972,-0.013107044,-0.060844418,-0.018822389,-0.009443696,0.02113944,0.019580428,-0.0204724,-0.09039721,-0.053019643,-0.078385934,-0.06379307,0.13789085,-0.02133273,0.029260833,0.08331379,0.02259198,-0.021521436,0.021092562,-0.019347996,-0.031710263,-0.03357836,-0.023758445,0.06531281,0.029821603,-0.010245716,0.022486098,-0.028426861,0.012375674,-0.078734435,0.032618836,-0.022236714,0.011692633,0.10826159,-0.013110144,-0.020886382,0.00400969,-0.05586448,-0.000753224,0.004425348,0.009234499,0.039117884,0.0115340315,-0.029940713,0.02640857,-0.015036489,0.012529314,0.002525858,0.0032009557,-0.0085848095,-0.041536167,0.06711564,0.04120668,-0.0023680509,-0.029782118,0.03126718,0.022524444,-0.013751488,-0.085423045,-0.018348876,0.008269453,0.002918085,-0.09601279,-0.040578146,-0.021118613,0.0336425,0.055054687,0.019314691,-0.04514231,-0.031326484,0.029204056,-0.0348725,0.013173528,-0.055328365,-0.018528296,-0.009498893,0.026084084,-0.005767595,0.03921088,0.031434976,-0.02750447,-0.04436928,0.014495257,-0.013648326,-0.018564537,-0.016635558,0.032628756,0.0124122705,0.013387528,-0.019468404,-0.015825303,-0.0043332456,0.03876853,0.025896324,-0.04260708,0.03716867,-0.0063196365,-0.02033084,0.033450924,0.065540366,0.032497343,0.05637622,0.07298498,0.014661549,0.012511978,-0.07367173,-0.0076284353,0.024770068,0.008922613,-0.01231669,-0.014304656,-0.002495166,0.00089043065,-0.008836624,-0.006146057,0.009019254,-0.021293577,0.023009317,0.039976995,-0.06263253,0.020176291,-0.03273572,-0.05911314,0.0018999054,-0.002331324,-0.010364417,-0.013235281,0.0076113637,0.0023073193,-0.00906193,-0.034498997,0.035848893,0.05423224,0.039463703,0.001384062,0.004790759,0.03456226,-0.00016163674,-0.058356293,0.027212383,-0.015579571,0.049710438,0.036624376,0.078802146,-0.005650495,0.012399136,-0.028648125,0.0127746975,-0.02734593,-0.03284359,0.019578343,0.039280258,0.069871575,0.015875453,-0.0022781435,-0.04236285,0.016611613,-0.004001754,-0.0128502585,0.008815,-0.0030112958,-7.1428716e-33,0.0059099575,-0.05245386,0.0016941214,-0.04508954,0.011804638,0.026876371,0.026997017,0.03641416,-0.042835303,-0.060897708,0.016443942,0.013114847,0.011921641,0.04591726,-0.030989366,0.0033064922,0.041132823,0.013850576,-0.034125056,-0.05253705,0.0013194653,0.019485282,0.077479176,-0.02727578,0.02362124,0.039535787,-0.038950067,-0.020553252,0.023397757,-0.033039905,-0.04912944,0.0089473175,0.0155541785,0.03264811,0.0025126066,0.071430735,-0.03200387,-0.0071825706,-0.02713765,0.001965659,-0.016890254,-0.0042597544,0.021990415,-0.08227059,-0.015223066,-0.030385237,-0.03041976,-0.012792416,0.037964497,-0.024384592,-0.014769486,-0.0403347,-0.016421476,0.03402527,-0.05491429,-0.008758927,-0.014796413,0.005941028,-0.03537009,0.0010410689,0.041358206,-0.020416373,0.0019094285,-0.064994305,-0.012494858,0.013616462,-0.0628599,0.025823852,-0.054303873,9.494706e-05,-0.01150797,0.0023919072,-0.07086756,0.016052712,-0.0126983235,-0.0013023494,-0.018539146,0.011679872,0.024838258,0.060409267,0.03803452,-0.030311136,0.058035336,-0.010409977,-0.010061939,0.022708483,-0.00812934,-0.01076427,-0.004972271,-0.0039996314,-0.017857512,0.01317371,-0.010892506,0.0030584927,0.054347925,0.07351181,0.04459639,-0.06736387,0.0101509215,-0.0006096023,-0.042193625,0.045958105,-0.034591444,-0.0037084173,-0.011371553,-0.0021283748,-0.07399894,-0.028659463,0.02300997,0.035186324,0.031638052,-0.04845235,0.02764137,0.007668676,-0.007881594,-0.057339553,-0.009082848,0.038963538,-0.019357637,-0.020731362,0.038798597,0.020456873,-0.030270807,0.04590955,0.039924547,-0.012105824,-0.031986684,-0.07055846,-0.0030446807,0.07079288,-0.013699876,-0.01930168,3.180971e-07,-0.015121005,0.025964094,-0.010437218,-0.011388251,0.0119894985,-0.0022508763,0.022827668,-0.015385656,-0.03408857,-0.02162076,0.049901024,-0.05789938,-0.035952397,-0.028029308,-0.027686754,-0.068963364,0.07003494,-0.01796172,0.0040406687,-0.08486722,0.07097495,-0.013834758,-0.0058157435,0.0030662704,0.03677285,-0.055815842,0.009994439,-0.021061694,0.04174765,-0.001852658,-0.014468918,0.02460057,0.0492826,-0.038825575,-0.017531788,-0.0013902442,0.03460673,-0.0043084905,-0.0023864368,-0.033837203,-0.012528562,-0.03512113,0.050337665,-0.025258288,-0.039953053,-0.014120936,0.012665674,0.016788613,-0.032280114,0.007988927,-0.07875061,0.010165445,-0.013216968,-0.020504005,-0.0078605525,-0.017362155,0.033018835,0.06459063,0.08458279,0.12558909,0.02447175,0.00824548,-0.046979543,0.054121196,0.02804576,0.0495964,-0.044278435,3.2003428e-34,-0.026389318,-0.06331824,0.029066404,0.050592415,-0.015177104,0.012180317,-0.081011124,-0.004164928,-0.0049511134,-0.035286978,-0.00926005
0016000000Ude8BAAR,0.0077710287,-0.052219205,-0.016963404,-0.016137283,0.0348686,-0.0059922044,0.016652731,0.0064842603,-0.013423581,-0.020191072,-0.008422027,0.05749857,0.06901016,0.03507344,0.07409254,-0.012098663,-0.015651992,0.059485227,0.013593207,0.050534084,-0.025407957,-0.018049998,0.0032718352,-0.011224837,-0.043784242,-0.06547505,-0.02166739,-0.01354579,0.03095941,-0.034136157,0.060491737,-0.012808409,-0.035694826,0.07832385,1.606108e-06,-0.004883379,0.002638214,-0.0030025593,0.017109992,-0.0029625362,-0.027977474,0.029026652,0.039617613,-0.016731905,-0.0027896096,-0.064337045,0.06348052,0.015063958,-0.018735724,0.013102361,-0.01737263,0.049524613,-0.06307065,-0.013059535,-0.03715996,0.01086026,0.024286868,0.030052213,-0.009747225,-0.01651831,-0.026227146,-0.06486478,-0.00790993,0.0017139507,-0.005556419,0.025392681,-0.008189064,-0.042458978,-0.026685672,-0.01496575,0.0068916013,-0.046809725,0.039968967,0.03774911,-0.037212856,0.010189511,0.0031660653,0.009557903,-0.022493204,-0.011508529,-0.070464,0.070020266,-0.004228431,-0.030874645,-0.004744298,0.066668466,0.0014534438,0.009842609,-0.025113445,0.049957786,0.044663478,-0.07539497,0.010331746,-0.031134676,0.008730033,-0.023340115,0.028048038,-0.02086472,-0.025172712,0.054146077,-0.03679809,-0.035156783,0.007790203,0.03987217,0.025743695,0.079912424,0.009553195,0.008688227,-0.0421169,0.015850298,0.036941107,0.004177487,-0.04927275,0.03563563,0.009617618,0.010617797,0.0019668236,0.010052039,-0.026974037,0.043296814,0.04382453,-0.010710753,-0.021132775,0.0048918277,-0.016968809,0.06568613,-0.0026627902,-0.04924155,0.014963232,-0.040706884,-0.047563262,-0.0032481062,-0.04585725,0.025518004,-0.038621366,0.032606024,0.04020276,-0.0432116,0.01095146,0.024038691,0.025630169,-0.05026382,-0.039941374,0.04008615,0.0058975643,-0.036880013,0.004098211,0.028483149,-0.016717654,0.019787626,0.058428988,-0.016797643,0.05006189,0.0502365,-0.024450643,-0.019653475,-0.055131618,-0.028266707,-0.036872625,-0.025252178,0.04189276,-0.021789856,-0.0034227383,0.029878749,-0.04857318,0.031966433,-0.010751607,-0.012405938,0.0124443825,-0.0797567,-0.071166314,-0.06122887,-0.016164996,0.025764877,0.0022405335,-0.022792328,0.0046462687,-0.0046102805,-0.040230997,0.08394761,-0.007316709,-0.10354799,-0.008843951,-0.017939575,-0.050409485,-0.0016779919,-0.045479532,0.040502414,-0.03417471,0.008196114,-0.031474527,-0.002638176,-0.074755445,0.07803087,-0.007035986,0.09097245,-0.06869276,0.053785674,-0.009744608,0.06583911,0.008736013,-0.02444068,0.04512055,0.009894485,0.024725478,-0.05366771,-0.007022316,-0.010523869,0.0055949423,0.032367047,0.065994404,0.0011216075,0.037708923,0.02625702,-0.07153768,0.02452274,0.03296438,0.06074926,-0.01025777,0.02389818,-0.09062294,0.010655037,-0.012826853,0.0061752307,0.02461365,-0.022276241,-0.028828816,0.024808085,-0.030506883,0.051695433,-0.005413004,-0.016080646,-0.008543157,-0.011209875,0.01819723,0.017699612,0.030017456,0.046528257,0.017605018,-0.006395465,-0.03875991,0.034581542,-0.027081326,0.017876804,-0.03852044,-0.050999194,0.032889012,-0.019050594,-0.023832183,0.007327101,0.0012015001,-0.063166305,0.015994335,0.017788373,-0.0012157239,-0.008377678,-0.033104032,0.020995973,0.010542972,-0.007938536,0.013653028,-0.073326185,-0.07664234,-0.033320885,0.0050091585,0.04147463,0.08368951,0.057913978,0.04476114,0.038506664,-0.018406516,0.06492504,0.01839917,-0.010363189,-0.030562256,-0.022592628,0.021457005,0.0064720106,-0.012691176,-0.0049887383,0.036035348,-0.045760535,-0.015020626,0.061785225,0.067547865,0.031703956,0.023060935,-0.007580947,-0.0962886,0.048221484,0.007262898,-0.054758772,0.0066894675,-0.048285756,-0.07996994,-0.0064400276,-0.011730842,0.037455283,0.047740694,0.022242282,0.0005711336,-0.023905827,-0.013473599,-0.0023703207,-0.032058865,-0.03178464,0.043530002,0.045631908,-0.021972049,-0.014426248,0.033145998,0.04875059,0.04245035,-0.075816505,0.0147557175,-0.02243905,0.014546632,-0.015573476,-0.009740265,0.06673239,0.0015161273,-0.0003123252,0.012310554,-0.045238882,-0.031969875,-0.03492436,-0.055901363,0.036101732,-0.028755167,-0.030031634,0.015518616,-0.028327415,-0.009686741,-0.004916995,-0.0041211164,-0.038130455,-0.008193344,-0.04884137,0.00032002202,-0.052264314,-0.040474057,-0.010081499,0.000563269,0.0002957196,0.035745353,-0.073468976,-0.0370346,0.017797057,0.00032258278,0.043285884,0.059647035,0.06667238,-0.06803214,0.010510133,0.044834103,0.007351394,-0.06356918,-0.0045851236,0.058276344,0.028344758,0.0245678,-0.004619735,-0.035408773,-0.014372078,-0.023733804,0.0056571583,-0.029786054,-0.06463339,-0.0032658956,-0.020483285,-0.0111924885,-0.0056174295,0.053108048,-0.039857574,-0.019041233,-0.024072954,-0.006544724,-0.0006348929,0.018604657,0.01802056,0.026251098,0.002167302,0.07622606,0.012555568,0.040485673,-0.059619732,-0.06433577,-0.037467353,-0.015491213,-0.029590264,0.011686059,0.023679866,-0.054848097,0.059846018,-0.0031893875,-0.0017802726,-0.016889507,0.010997077,-0.03761403,-0.009484699,0.0031272564,-0.039941393,-0.015169246,-0.04925557,-0.0057781725,-0.05499766,0.055792626,0.006674574,0.00212572,0.019974722,-0.029244581,0.014545862,0.03130134,-0.0014061717,-0.05626668,0.056246657,-0.02539062,-0.022765428,0.030533446,0.03429533,0.035612505,0.04051171,0.018192308,-0.025548136,0.06446438,-0.013359047,0.017011624,0.06643109,0.0036081106,-0.020401606,-0.008870865,-0.10491145,-0.012026255,0.027537396,0.03442072,-0.035470687,0.017510911,-0.03884296,-0.01389233,-0.01287758,-0.026216013,0.018433042,0.031619143,0.024710173,-0.07661817,0.03461523,0.016953781,0.004462811,-0.029940002,-0.018355412,-0.031090157,0.056654785,0.014842257,-0.03158971,-0.01646776,0.008342419,-0.082511365,0.057790413,0.06308747,0.03801743,0.036445547,0.031587727,-0.040012956,-0.02705519,0.06285965,-0.017885212,-0.01205461,-0.031052692,-0.006810587,-0.025749668,0.018426428,0.025732432,0.030502832,-0.0006452254,-0.007231324,-0.03883208,-0.012358332,0.04733138,0.030018702,0.056826055,-0.012225416,-0.03486495,0.009381534,-0.016989011,0.01829529,0.0065241847,0.015175671,0.003337288,-0.008245158,0.018906709,-0.0095702605,-0.029961614,0.038912803,0.042223826,0.042160608,0.034767803,0.011813302,-0.03058401,-0.034435757,-0.0077687525,-0.031673465,0.029172702,0.050609477,0.03145012,-0.034738272,-0.053953346,-0.02994646,0.042596493,-0.020821577,-0.015098933,-0.04389081,0.005131601,-0.029585363,-0.057359252,0.036031917,0.06894613,-0.019480195,0.07549113,0.0020735266,-0.03737957,0.0051646065,0.026800375,-0.015831899,-0.0034845734,-0.010336954,-0.035359807,0.062407948,0.0211607,0.035395313,0.0068349107,0.026028046,-0.05673104,-0.04047874,0.004121476,-0.024991507,0.026723273,0.020160537,-0.03487635,0.0058691413,0.016498309,-0.046694156,-0.006318246,-0.02163213,-0.0020544908,0.013769518,-0.02797562,0.0256159,-0.04980174,0.009331338,0.0038394176,0.007848882,0.021543784,0.0019043402,0.029314118,-0.008045179,-4.6340147e-33,-0.004945093,-0.07724525,-0.04433435,0.0881406,-0.056087445,0.035282847,0.04504256,0.0040880945,-0.0017225827,-0.03801598,0.034557313,-0.008053805,-0.009336552,-0.004609962,-0.032156274,0.0023876987,0.032764617,0.010090399,-0.02106269,0.0049743396,-0.033325072,-0.013774069,0.0055702794,-0.043312453,-0.03399246,-0.01512831,0.014460292,0.06692609,-0.009007236,-0.024025422,0.0325215,-0.022967616,0.009343203,0.017045649,-0.014193407,0.08212675,-0.043039102,-0.02211277,-0.058224745,0.052058015,-0.023331666,0.03175239,0.03894674,-0.07111906,0.0034729436,0.012098002,0.004479857,-0.013064176,-0.021463325,0.045378,0.042086978,-0.035446998,-0.033042017,0.05967593,-0.024657834,0.027093641,0.012282206,0.080224946,0.024608666,-0.03300155,-0.0076945755,0.0044209226,0.013751527,0.032570116,0.023823181,-0.03009445,-0.026627425,0.011281087,-0.033230804,-0.050581355,-0.07114525,0.026827306,-0.0155936675,0.014797639,-0.0631208,-0.038119297,-0.017713659,0.009265605,0.054114837,0.010557611,0.037802648,-0.015449963,0.086391516,0.036867123,0.09616363,-0.002520019,-0.008390497,-0.043499053,0.009593468,0.038094644,-0.010113455,0.048900977,-0.07021998,0.033991057,0.041812103,0.05139881,0.044701956,-0.034501445,0.0032756657,-0.018809838,0.023037292,0.06466827,-0.021046178,0.016389428,-0.045459706,-0.0030749142,-0.01770505,0.015746592,-0.008296777,0.058079418,0.062003907,0.0033151202,-0.0576277,0.01677937,0.0060903574,-0.016049238,0.04023801,0.036561377,-0.023879485,0.004087637,0.0060408274,0.005015873,0.005345818,-0.021596577,-0.035525095,-0.007220809,-0.03633377,-0.00841121,-0.013144694,0.04883386,0.0043375003,-0.021540934,2.5247076e-07,-0.015400154,-0.018398145,0.047888495,0.032421384,0.022798741,-0.059525345,-0.01436972,-0.0058279955,0.034051526,-0.018850187,0.019721849,-0.0643072,0.029445589,-0.00082618615,-0.037351258,-0.06275826,0.028561559,0.0068871113,-0.0099461395,-0.052937917,0.12781288,-0.043194804,0.076247916,0.05329292,0.028703712,-0.019956218,0.018547233,-0.03155631,0.006541146,-0.027908161,0.008395781,0.045375504,0.03604085,-0.0024627715,0.013562305,0.006411203,-0.0051576197,0.0134268515,0.031904623,-0.049626797,0.0034494107,-0.022659991,0.024050813,-0.020033527,-0.027523419,-0.034241986,0.020423608,0.08616278,-0.054402784,-0.043881472,-0.043925468,0.026893776,0.025710827,-0.0020566003,0.004589912,-0.013126892,0.014806584,0.079370745,0.04274349,-0.0022727875,-0.026764726,-0.001525015,-0.01062267,-0.02087103,-0.004072873,0.06370246,-0.06604298,2.6999099e-34,-0.055504464,-0.07952081,-0.00057839113,0.007878135,-0.009082687,0.018772209,0.0047385395,-0.017528247,-0.023298351,-0.076073535,0.053854134
0016000000Ude9UBAR,0.046604387,0.08036379,-0.016026799,-0.008656625,0.012022397,-0.021221258,0.016893419,0.012561177,0.0019842407,-0.038782176,0.006823359,-0.0024078758,0.01607887,0.042436365,-0.030059505,8.3672894e-05,-0.02815353,0.040086348,0.005207285,0.007758152,-0.06551493,0.049789228,-0.01918265,0.019292345,0.001528288,-0.011428489,0.020031031,0.028635737,0.0064068893,0.009336284,0.04498256,-0.03101202,-0.004775349,-0.027661439,1.5914887e-06,0.005574687,-0.027110267,0.0015489414,-0.0013838033,-0.026422005,0.00078851706,0.00923344,-0.005392459,0.045626942,-0.0086873155,-0.03493974,0.07701413,-0.013747953,-0.05698687,-0.012080946,-0.0042794016,0.0028592811,-0.06103666,0.004004445,-3.087269e-05,0.010012649,0.025390612,0.025970502,0.013470302,-0.02524918,-0.0050616437,0.047720555,0.009627169,0.0033497794,-0.030063525,0.034392215,0.033176877,0.0047127125,0.004857382,0.020176075,0.072489336,0.003314635,0.019863524,0.106737584,0.003185407,0.003343585,0.029973364,0.020194609,0.010576296,0.007218991,-0.08565683,0.10471698,-0.027208867,0.0046937116,-0.028884938,0.06371599,-0.025199598,0.020688144,-0.010769074,0.0033388047,-0.01380583,-0.023358067,0.036969,0.014282814,-0.0058324,-0.027107155,-0.0065112184,-0.0030333977,0.0034705065,-0.0012124494,-0.024692329,0.025956776,-0.052104656,0.013443767,0.015976502,0.04974225,0.034434546,-0.031840984,-0.028582796,0.0586275,-0.026723841,-0.011238868,-0.018068084,0.0007878999,0.031100247,0.021549271,-0.030904027,0.01737501,-0.015376548,0.0034819052,0.006563531,0.01850166,0.026417883,-0.0089465445,-0.049496718,0.0035522573,-0.02952241,0.018812135,0.027799841,-0.01981502,0.011498468,0.019289829,0.016256208,0.005991405,0.043954507,-0.02403457,0.018651389,-0.06414397,-0.017514212,0.0073848623,-0.036600683,-0.045955602,-0.08396526,0.016155213,0.0123161385,-0.02890129,0.025407309,-0.015594729,0.0033089942,0.015049164,-0.0005502377,-0.028288864,0.049105544,-0.009229026,0.048593707,-0.0033072121,0.11241206,-0.020938797,-0.030703744,-0.0007892467,0.007191766,-0.033271864,-0.024298185,-0.0054118396,-0.050750453,-0.042718504,0.0740288,0.016650252,-0.042826876,0.02786502,0.039832987,0.034305207,-0.034083366,0.032910902,0.056652438,0.0069811405,0.0044202995,0.009300972,0.077573866,0.021294085,0.010004392,-0.1548002,0.019911319,-0.07693917,-0.0364376,0.021060802,-0.025006296,0.001955803,-0.0007257995,-0.040832672,0.008090022,0.008471207,-0.015880633,0.05721727,0.013939772,0.011539766,-0.009987529,0.008909905,-0.05088242,0.0003735604,0.017003134,0.0069814073,-0.0347811,0.015451558,0.02103902,0.03463822,0.04147231,0.005121008,-0.06614218,0.025744393,0.017199822,0.050241113,-0.0051646363,-0.015562102,0.003472776,-0.0065228594,0.07388397,0.03544832,0.002879312,0.06562361,-0.033631984,-0.03222821,0.03546599,-0.010498831,0.038338758,-0.07753956,-0.010443184,0.033197243,-0.012495954,0.056995742,0.020526454,0.016529707,0.007374769,-0.043992706,-0.059244882,0.011938541,0.093452945,0.05955288,0.032097317,0.017394863,-0.022163935,-0.028441086,0.022483915,-0.037473746,-0.020922732,0.020489464,-0.007189891,-0.010019234,-0.0252017,0.009615719,0.032351837,0.0077737286,0.04924045,0.008193696,0.008989491,-0.03431232,-0.027244942,-0.0010715396,-0.014004028,0.06618953,-0.020082567,-0.080623105,-0.04415628,-0.02995778,0.0029701125,0.006328147,-0.03896864,0.009383076,0.009152911,-0.023339532,0.033813294,-0.0074752234,0.05042486,-0.008630327,0.04991729,0.03914435,0.025370063,-0.03152879,-0.00358826,-0.009664895,0.046753693,-0.12905738,0.02806838,0.012800213,-0.006604409,0.0004071957,-0.0072633484,-0.051857438,-0.061815716,-0.041176807,-0.0471779,-0.0027527204,0.028349062,0.008027133,-0.03823069,0.012000339,-0.021591878,-0.014289129,-0.009786881,0.008786454,0.0064028534,-0.072723836,0.020561652,0.002827993,-0.011252608,-0.081565194,0.023450756,0.012303599,-0.037790064,0.015829353,0.030609077,0.021201946,0.020370265,-0.10336705,0.04417066,-0.04324181,-0.07334813,0.002671871,-0.0006147432,0.07849451,0.025153775,0.009235899,-0.027152067,-0.026082672,0.015202203,0.040554818,-0.014918782,0.0026365605,-0.015808513,-0.01580268,0.0063919676,0.035604354,-0.06332261,0.027668023,0.02955137,-0.032139376,-0.050759133,-0.0069338605,0.013817335,-0.012924643,-0.0024791395,-0.005501445,-0.029363494,0.046271145,0.02234243,-0.011515467,0.07421775,0.036369313,-0.07512189,0.024449171,-0.031834044,0.013152777,-0.026138136,-0.035488144,-0.03045022,0.043523017,0.016462991,-0.022013683,-0.028446179,0.032182917,-0.06537824,-0.024113214,0.024278995,-0.023852903,0.061772086,0.012489294,0.050045926,0.028713573,0.016227202,0.025232531,-0.04272611,0.027387455,-0.040247925,0.03784771,0.001883914,0.030124594,0.021105008,0.018137917,-0.017947407,0.025821697,0.095432326,0.026731607,0.074011,-0.03192248,-0.0221754,-0.026577542,-0.02029928,-0.09999915,-0.004177056,0.006221576,0.026156541,-0.004210098,-0.05820164,0.03344006,-0.04348932,-0.016336203,0.012503993,-0.018255636,-0.06289079,-0.007004623,0.01947449,0.027235858,0.018219672,-0.011481341,0.014382317,-0.13034382,0.09844466,-0.031893197,-0.03429653,0.048415612,-0.01071478,-0.08402697,0.00074947474,0.020244647,-0.04773865,-0.116148576,0.0065848352,0.025793077,0.09243998,-0.035855014,0.06868229,-0.016185666,-0.015207279,0.06413481,0.0048586032,0.041019835,0.054771375,0.011314161,0.02148393,-0.009124629,-0.023022437,-0.0039160075,-0.047070857,-0.021980176,0.062709704,-0.005166356,0.021148628,0.021728067,-0.035660144,0.017396366,0.026876124,0.031189973,0.027196934,-0.006839999,-0.02296202,0.009540776,0.016362729,0.09011979,-0.038644295,-0.06191927,0.0387332,0.017826842,0.029043484,0.021900961,0.03498756,-0.026996046,0.042357877,-0.05397185,-0.0015064215,-0.0016300097,0.027606288,0.034839895,0.0065337485,0.008248359,0.035879076,0.028978186,0.06599101,-0.020193566,0.02309942,-0.043051753,-0.0032813202,0.0039536925,0.010946017,0.025290221,0.00590882,0.0074299513,-0.01920396,0.046813753,0.0013930291,0.03910158,-0.050223477,0.0053985408,0.007818202,0.041200627,0.008928646,0.01999399,0.023446413,0.015121134,-0.04079824,-0.0012449487,0.041518178,-0.02034782,0.001313426,0.029641483,-0.026971404,0.065033786,0.055996247,-0.030361464,-0.07624099,0.0030303972,-0.036737703,-0.00592028,0.02496087,0.027206998,0.005697677,0.0123970425,0.018381542,0.053175848,0.006032985,0.039487895,-0.07373205,0.0050542387,-0.012791145,-0.022174617,0.015136146,-0.00795838,-0.022893826,-0.039621122,0.03027038,-0.07625333,0.0133725945,-0.0028522883,0.01915969,-0.018104602,-0.043337516,0.0066867676,0.020043697,0.0073460303,-0.0362032,0.051423058,0.04664592,-0.009012907,-0.05876924,0.044429097,-0.02325225,-0.011469372,0.018342357,0.016398298,0.02139214,-0.0321631,-0.01800974,0.0043049217,0.023572411,-0.013415037,0.03631116,0.009203906,-0.064878896,0.049296483,-0.022504505,-0.050239872,0.002437047,-0.009118505,-0.08813175,-0.021937763,0.020207739,-5.2187023e-33,-0.043814775,-0.0729275,0.008090044,-0.02857299,-0.0019998013,0.022926506,0.05007018,0.009576958,-0.044156946,-0.004912993,-0.00469546,0.010468386,0.042380586,0.0074920477,-0.017195776,-0.019308245,-0.014301045,-0.0061008763,-0.009189092,-0.046785727,-0.06605245,0.010771659,-0.0056734188,0.0414083,0.0075755254,-0.008722331,-0.042974863,0.053412315,0.026555939,0.0066812965,-0.013276524,0.023988826,-0.011884061,0.018634873,-0.005684612,-0.02306839,-0.06370315,0.026380725,-0.00799008,-0.04070998,-0.06700874,0.041903514,-0.030404072,0.014940401,0.020098487,0.026799012,-0.02772842,-0.039202392,-0.013498976,0.0068391836,0.023664074,-0.02269179,-0.0011292336,0.048695978,0.0017485224,0.060746636,0.0012612443,-0.03881806,0.043162238,-0.04434302,-0.011992998,-0.016298875,0.043535735,0.038999747,-0.010420164,-0.0043984163,-0.017714579,0.06410318,-0.023778507,-0.0008268815,-0.03516743,0.05514922,-0.0230559,0.013652261,-0.07463948,0.01192308,-0.00035833288,0.0092098685,0.012925841,-0.03752028,-0.035927195,-0.051595174,-0.009501856,-0.009763187,0.010127167,-0.0544827,-0.035596073,0.015190535,0.012796425,0.009648936,-0.017903795,0.003724549,-0.019023554,-0.009071008,-0.007640319,-0.050495945,0.031247668,-0.00024216808,-0.0039344286,-0.029953724,0.020320222,0.030440276,-0.045616366,0.021828411,-0.0011940902,-0.015986638,-0.0074038776,-0.038032107,-0.08311716,-0.0020078777,0.01152982,-0.0043149036,0.032039464,-0.070132084,0.029548708,-0.024562024,0.03833638,0.08599996,0.031900946,-0.04765157,0.05206162,0.0027692637,-0.008350513,-0.026320143,-0.008190868,-0.017315857,0.041359242,-0.0260774,0.0020824927,0.014447362,-0.0024530254,-0.057986848,2.2572553e-07,0.061948698,-0.018099602,-0.028963376,0.014803777,0.036456883,-0.05098834,0.08868568,-0.017904434,-0.07205305,-0.09171391,0.08213044,-0.04967406,0.013113186,-0.029334549,-0.0007712649,-0.019876078,0.01119626,-0.026202463,-0.03161455,-0.056149475,0.07920692,-0.016506437,0.035612777,-0.017590858,0.020891827,-0.048817705,0.046769638,-0.06045142,0.05408827,0.011603855,0.02947831,-0.07559673,0.004647315,-0.091202304,-0.005862227,0.0331248,-0.012607789,0.040612716,0.049451064,0.045751695,-0.022230837,-0.04361423,-0.022747073,-0.06585469,0.016375752,-0.01073826,-0.027922876,0.046192534,0.0035787704,-0.032105964,-0.028672762,0.0011718282,0.0022929194,0.026316218,0.027369557,-0.003730088,0.031037766,0.022802552,0.031978216,-0.049941417,-0.043500967,0.03587104,-0.024476133,0.014352596,0.05022672,0.029864991,-0.004533453,2.1009379e-34,0.011670886,0.007222988,0.028735604,-0.029182227,0.009056379,-0.017720675,-0.03851534,0.007102493,-0.0198166,-0.07004988,-0.029486489
0016000000UdeEkAAJ,0.037526872,0.004611333,-0.02783466,-0.0047145193,0.0019151494,0.006371446,0.047356237,0.031962145,-0.017337242,-0.018329961,-0.051413182,-0.00301419,0.027973995,0.062201787,-0.0044417162,0.0466579,-0.041755557,0.04013097,-0.026502473,-0.0073599354,-0.036410484,0.030376833,-0.029757475,0.044025596,0.06182751,-0.041833505,0.035753824,0.011934316,0.011078198,-0.024604516,0.11765506,-0.035247512,0.016304852,-0.04231413,1.9762397e-06,-0.022610575,-0.032996897,-0.028015837,-0.008052172,-0.040641364,0.03611702,0.027312728,-0.023147564,-0.0075531667,-0.01182203,-0.0053772363,0.057700817,0.046733864,-0.051194675,0.021379052,-0.0052624634,-0.031793877,-0.052165434,0.016671292,-0.005197653,0.038240977,0.038302954,0.04546677,0.019224953,0.0073077353,0.0033462169,0.0167305,0.006074853,0.017955964,-0.0040487126,0.007793787,0.05290552,-0.0433596,0.006912877,0.021842398,0.024503957,-0.030715486,0.01484845,0.10779334,0.011046834,-0.009846705,-0.008210731,0.0463664,0.011863304,-0.023615768,-0.07860971,0.07962844,-0.01304974,0.019426499,0.023707723,0.07391059,-0.02431532,0.039336693,-0.02385418,-0.038352724,-0.0017807294,-0.016247107,0.0060990923,0.003907485,-0.030392455,-0.019858034,0.01226257,0.008812068,0.025723726,-0.029329775,-0.0035508394,0.033997133,-0.035332307,-0.014538946,0.0016458277,0.028620472,0.015834112,-0.029408673,-0.04777555,0.071160704,0.0019678837,-0.006693142,-0.017001947,0.021289082,-0.017374279,-0.00070592435,-0.056394946,0.018802045,-0.011025216,0.019438067,0.036193654,0.014986069,0.011341088,-0.0070124487,-0.06351324,-0.03621907,-0.06266457,0.015316202,0.004382117,-0.008284595,0.039825536,0.043206185,0.024237176,-0.02570087,0.010607166,-0.036677282,0.034776904,-0.027438814,0.0062732226,-0.014581086,-0.015181705,-0.05745689,-0.067139976,-0.007442386,-0.009326476,-0.013739574,-0.007457724,-0.024413412,0.0042382977,-0.011103085,0.023690417,-0.026772901,0.017112898,0.0006315219,0.062283337,0.008571018,0.098938614,-0.0311249,-0.0395299,-0.021605471,-0.009782084,0.025631297,-0.039359298,-0.007245016,-0.05454952,-0.04563489,0.029073011,0.056653816,0.0028673494,-0.0050935606,-0.011843213,0.015105116,-0.04791766,0.0843147,0.030504903,-0.03399919,0.052113008,0.052127678,0.0064322446,0.015241139,0.010606865,-0.13160877,0.032951165,-0.027098611,-0.0073037124,0.024127496,-0.03378989,0.008542937,-0.008101421,-0.023820585,0.035446372,-0.0067888307,-0.030195681,0.045330793,0.010608051,-0.0019514819,-0.016176159,0.025032947,-0.0030478148,0.0026427272,0.016090296,-0.03324219,-0.004577785,0.06770253,0.017685039,0.049533404,0.037232783,0.005769101,-0.09949835,-0.006566797,-0.0060234643,0.037774842,-0.024356358,-0.016475493,0.0075579644,-0.044413097,0.06200315,0.039242215,-0.04096484,0.057711195,-0.031585153,0.026183598,0.03886393,-0.040863976,0.032643188,-0.039436873,-0.043577813,0.03747744,-0.044476118,0.039513186,0.022226779,-0.011446439,0.0009821403,-0.03584249,-0.046443023,0.007905169,0.091612615,0.062472634,0.03855071,0.020670548,0.014047198,-0.0032306174,0.05705228,0.0036202772,0.011815611,0.03762345,-0.029864833,0.0010019112,-0.034277752,-0.0023616143,0.025441017,0.019525833,0.0741447,0.024040805,0.016847754,-0.018697262,-0.010128113,-0.0046708384,-0.033863258,0.015719738,0.026862817,-0.08144547,-0.03868707,-0.022663368,0.03452963,0.0037529627,0.02599545,-0.0134157315,-0.022723189,-0.028812388,-0.0069634677,0.03185032,0.053459965,-0.0008666752,0.016774813,0.026049113,0.029495385,-0.041420307,-0.03449625,0.017852912,0.03955478,-0.110517405,-0.0031195323,0.0031261295,0.018238684,-0.009804746,0.017977824,-0.06260245,-0.035034426,-0.011656627,-0.026884122,-0.025940899,0.037826054,-0.03933356,-0.0348911,-0.0093915835,0.0025908644,0.03066026,0.013523192,-0.0144141875,0.012774524,-0.08461208,-0.014312669,-0.031379502,-0.020516623,-0.04333572,-0.0064430796,0.0039370535,-0.030132476,-0.049159415,0.011528338,0.0053865174,0.012186061,-0.08551122,0.046439756,0.0022817887,-0.05385832,0.014182045,-0.02154655,0.115517974,0.033815227,0.02371259,-0.04761876,0.01315735,0.013376316,0.020743622,-0.009790808,-0.008920378,-0.04356051,-0.03293828,0.012036409,0.0030641467,-0.054398853,0.025780726,0.005615458,0.01296958,-0.04500541,-0.022822501,0.041662876,-0.00787952,-0.0018758173,-0.020890709,-0.021112846,0.07405082,0.010073202,-0.029807784,0.05145409,0.045097556,-0.039248116,-0.02839025,-0.053494014,-0.008987176,-0.028662365,-0.0011004197,-0.035901617,0.028808858,-0.003842631,-0.0049243104,-0.050510913,0.039572123,-0.04509862,-0.016248887,-0.025180858,-0.044428326,0.04707574,0.015377915,0.044531167,0.025979755,-0.010812305,-0.008980297,-0.028455043,0.0369695,-0.028066678,0.039341193,-0.026377045,0.04468253,-0.009594981,0.028617147,-0.007018181,0.01939913,0.04460335,0.03617957,0.08067175,-0.010949679,-0.01091339,0.0022958193,-0.004070321,-0.06544439,-0.007953474,-0.022461124,0.02816359,0.032469783,-0.0604735,0.077316225,-0.040602803,-0.024153292,0.025978724,0.014833595,-0.054595493,0.017574027,0.008328221,0.019514438,-0.0076946258,-0.012201219,-0.04570024,-0.07068066,0.06985516,-0.007587257,0.0028678628,0.061801057,-0.031178847,-0.053262062,-0.00572618,0.0011564236,-0.028303944,-0.072639085,0.007113074,0.06983224,0.0863642,-0.021315055,0.060917143,0.0155884195,-0.075858235,0.028137788,0.037656613,0.034249783,0.056539513,0.03298596,0.0153235765,-0.009208892,-0.03319779,-0.00038351462,-0.053701468,-0.02384493,0.092204414,-0.078092456,-0.013990596,0.010791759,-0.02491438,-0.011794722,0.016167754,0.012340573,0.045328755,-0.02027601,-0.0776357,-0.05719619,0.04753599,0.054921746,-0.09928288,-0.02243595,0.036283877,0.024096178,0.049705442,0.003780612,-0.012111863,-0.019304069,-0.068858765,-0.051078722,0.035441257,0.008912118,0.04125449,0.040165983,-0.018387139,0.004182016,0.041873433,0.0027852268,0.015564049,-0.086032294,0.012509379,-0.0018570592,0.030367702,0.026815282,0.02935123,0.020752024,0.029231371,0.0028862935,0.0033422944,0.08079323,0.0046152174,0.04872732,-0.025696333,-0.0019332507,0.019814756,0.006582993,0.015690137,0.027759923,0.0518368,-0.010239272,0.0003261127,0.020354295,0.012672356,-0.021037646,0.0058441316,0.073501326,0.0064942585,0.0035302779,0.033199895,-0.03225003,-0.009263727,-0.011136079,-0.023505334,0.02721422,0.024469335,0.020409023,0.004966869,-0.00228671,-0.0013001946,0.013913722,0.0041866293,0.016643748,-0.04809151,0.0037143454,0.052719202,-0.009506852,0.022594562,0.032448977,-0.0027071885,-0.031451687,0.02284062,-0.058411762,0.019789016,-0.045338385,0.0076091923,-0.042231847,-0.0547195,-0.0018137499,0.005492117,0.0128702475,-0.039332666,0.018023401,0.04970892,-0.020272534,-0.038046885,0.0427758,-0.046170626,0.019771982,-0.00069485634,0.007429395,-0.015150724,-0.045363333,0.023554428,-0.026079426,-0.007364355,-0.0075148526,0.033344395,0.017741552,-0.04692631,0.0034427824,-0.0026654385,-0.03297561,-0.029999584,0.0327479,-0.07903409,0.010297434,-0.01892884,-6.1357988e-33,-0.009961737,-0.06912379,-0.0048752245,-0.039035343,0.009728864,-0.017934332,0.044866603,0.027328882,-0.05330689,-0.023463307,0.013374748,0.028288838,0.023793068,0.0005852123,0.006168545,-0.04517136,0.0056832707,-0.02753479,-0.000767153,-0.046573758,-0.06721791,0.017648466,0.020921782,0.038366783,-0.012104541,-0.0568507,-0.05011524,0.034855142,0.021948079,0.021700656,-0.027295358,-0.014219957,-0.014357816,0.06625905,0.015197858,0.036324736,-0.09904077,0.051559296,-0.014703421,0.029921198,-0.06237303,-0.004310053,-0.019549677,-0.02325307,0.010907826,0.023012666,-0.031556714,-0.077988654,0.010466789,-0.013967445,-0.017785862,-0.0011870677,-0.005226663,0.036288306,0.066651694,0.056038838,0.007299167,-0.058856383,-0.02298356,-0.03765871,-0.0114920465,-0.0072767963,0.0209929,0.009059952,-0.017544443,-0.025926918,-0.008602721,0.0017137346,0.0072409566,0.035348833,0.0020350292,0.08372477,-0.06525913,-0.018467644,-0.063941896,0.03474308,0.019006077,-0.027843524,0.053214375,-0.011822183,0.0008708493,-0.011097869,-0.01292387,-0.0133664785,0.027685154,-0.030944342,-0.046887085,-0.019044438,0.02106793,0.017108757,-0.028846325,-0.0040090177,-0.034880783,-0.010839504,-0.046008408,-0.0607181,0.026792176,-0.03706252,0.024042588,-0.018697318,0.022819016,0.038546957,-0.08162189,0.06490536,-0.021774426,-0.010593964,0.00028750525,-0.009307388,-0.07329767,0.004851522,0.038391076,-0.026538063,0.03785615,-0.07216597,0.042062003,-0.020455638,0.02046152,0.10979316,0.029586874,-0.028635468,0.023207018,-0.010955955,0.010015414,-0.031968553,-0.051525217,-0.021196231,0.011748437,0.0028789493,0.02294161,-0.00011232862,-0.0009000989,-0.03619984,2.6527294e-07,0.023997532,0.034387212,-0.04093486,0.056855388,0.031166544,-0.028642893,0.066748865,-0.021033151,-0.035348423,-0.07889935,0.06815353,-0.05026374,0.04355903,-0.01985001,0.0122806905,-0.023150662,0.032966625,-0.0031835116,-0.040930487,-0.018390799,0.06794648,0.012962217,0.046506215,0.0027777283,0.021491015,0.0014142786,0.038504306,-0.038065992,0.039969392,0.0023734816,0.00939615,-0.023473065,-0.009711723,-0.1006394,-0.0005973975,0.025016217,0.02052189,0.06080158,0.05752611,0.067176834,0.010449216,-0.073476896,-0.015275683,-0.08173952,0.035525084,-0.026892385,-0.02738107,0.018205237,0.0076989676,-0.015860423,-0.02113913,-0.033136252,-0.05301038,0.032153126,0.010598848,-0.018697686,0.030303365,0.024398677,0.040266704,0.012349459,-0.035051618,0.053838223,-0.010842599,0.0074760043,0.03971914,0.03769513,0.008469567,2.4447803e-34,-0.003189149,-0.010893177,-0.0007910965,-0.01477443,0.007859293,-0.04031643,-0.0173374,0.010467062,-0.018492915,-0.051115014,-0.030570928
0016000000UdeNWAAZ,0.07228241,-0.041414514,-0.009630543,-0.009537626,0.007966868,0.012791626,0.06924008,0.015965907,-0.047098193,-0.0066400096,0.0034332506,-0.046746645,0.064664416,0.029048875,-0.0043656346,0.01111568,0.00079463073,0.009059941,-0.044361673,0.03182436,-0.034559254,0.016549934,-0.034074083,0.06873804,-0.012165283,-0.048519656,0.016290028,-0.0038270561,0.048864927,-0.0838992,0.14486682,-0.012599098,0.01884101,0.004598764,2.0571479e-06,-0.0052355593,-0.008112226,-0.0010106525,-0.010553129,-0.0035539423,0.028701872,0.044180192,-0.05140271,-0.031233465,0.008835169,-0.045157082,0.06286718,0.00012486738,-0.038375553,-0.041808337,-0.0042798966,0.014361462,-0.059633244,0.03410215,0.035638694,0.019822944,-0.0136107495,0.079346895,0.060675994,-0.04019871,0.017087266,0.006999059,0.002152787,-0.028192025,0.048042193,-0.011438653,0.03586376,-0.05295961,-0.009018634,0.044437382,0.042942766,-0.05989469,-0.0024164345,0.0684389,0.019765345,-0.00033484373,-0.030398006,0.038704675,0.01991326,-0.013357384,-0.013705343,0.06802523,-0.048111938,-0.031063985,0.051907625,0.019840272,-0.017913,0.035258986,0.004133806,-0.014595609,0.038934935,0.012438629,0.01204683,-0.013848877,-0.03580987,-0.02798381,-0.012085932,-0.02683981,0.03127487,-0.0919499,0.04447633,0.008578893,0.018373499,-0.004503019,0.015589293,0.05088581,0.06572816,-0.009107398,-0.08041305,0.07243676,0.008981697,-0.0048377058,-0.04084794,0.03680943,-0.033383437,0.013531857,-0.03146479,0.059616424,-0.0046465895,0.0038635554,0.021263612,0.061370272,-0.005023941,-0.033011146,-0.021856993,0.0049450803,-0.04099758,0.005678093,-0.023919899,0.07101593,0.0074103856,0.03728137,0.03637486,-0.029336987,-0.030383613,0.0037825513,-0.011480237,-0.014949256,-0.05434267,0.0109041175,-0.0039905915,-0.0672359,-0.028827516,-0.006866904,-0.06741308,-0.005673283,-0.01132244,-0.04458304,0.01224225,-0.02141656,0.0120661305,-0.013137971,0.061600793,-0.012591455,-0.04724585,0.011857486,0.08773671,-0.01682483,-0.019703595,-0.011197996,-0.0034241523,-0.0023468458,-0.020237107,0.015018315,-0.09259137,-0.035857912,0.043861445,-0.0030828076,-0.04762434,-0.01989424,-0.008753026,-0.023731885,-0.012154359,0.09478685,0.06402592,0.029892415,-0.009170579,0.011159559,-0.03396567,-0.017948182,0.0363087,-0.10023369,0.037798043,-0.021853883,0.03754378,-0.013914438,-0.024428686,0.06640086,-0.013578292,-0.018713338,0.0072416947,0.023584459,0.0009828887,0.015483889,0.022298843,-0.0015459544,-0.014178739,0.037869375,-0.00707798,0.016469564,-0.02618833,-0.01314216,0.02120279,0.024581386,0.011212893,0.05387579,-0.047909755,0.06610855,-0.124056295,0.011904767,-0.049421214,-0.0010764871,-0.018310348,0.0005974549,0.0088112075,-0.006103915,0.07468299,0.031725798,-0.03779326,0.039146848,-0.0021410042,-0.021852193,0.05443376,-0.034081366,0.0055579506,0.01707032,0.026647095,0.021811679,0.028031878,0.035530377,0.033789188,-0.010806479,0.039178338,0.0023178107,0.079078175,0.016176954,0.081067964,0.034817692,0.022246026,-0.027421083,-0.009952658,-0.056574382,0.05088759,0.010019582,0.016637294,0.037491586,-0.06869187,0.047075827,0.010884098,-0.037813835,-0.018891169,0.011283586,0.0405189,0.04309005,-0.040669944,-0.030212333,-0.04891757,0.04477891,-0.0005315332,0.012981464,-0.0074700136,-0.07812756,-0.01719972,-0.017229535,-0.004705945,-0.009566551,0.0297386,0.037506614,-0.009396026,-0.015990917,-0.024326432,0.008845133,0.041958928,0.012456933,0.035794184,-0.011495182,0.039258085,-0.04956793,-0.03070885,-0.010258793,-0.019028228,-0.037329227,-0.00018610197,0.032078326,0.003763618,0.01595634,0.006426503,-0.054515697,-0.058232896,-0.01325807,-0.02798121,-0.004273626,-0.005784792,-0.026703294,-0.002404874,-0.007656036,0.018270075,0.04582926,-0.0064389114,0.0043418664,-0.027795514,-0.06364441,-0.03387273,-0.0063877464,-0.01101176,0.004166629,0.031299554,-0.074376166,-0.047433957,-0.03141022,0.0024312618,0.022838192,0.0041264477,-0.035471793,0.08044465,0.033981323,-0.073418245,-0.016125537,-0.037670314,0.07127262,0.024154652,-0.01955471,-0.033058256,0.000545933,-0.017020945,-0.0075432044,-0.0076516676,0.05339279,-0.012762957,-0.033957984,0.023368552,0.0058365287,-0.03095296,0.02336284,0.06387522,-0.00125521,-0.04813397,-0.00036131163,0.03193208,0.017815728,0.011522325,-0.039590634,-0.055583283,0.017529901,0.02665513,-0.060474675,0.03177425,-0.030337159,-0.047638413,0.011440179,-0.029537383,0.0034124944,-0.018868051,0.04211315,-0.02813958,0.0026350212,-0.0049186614,-0.036926284,0.037877776,0.0114389295,-0.044782616,0.052074872,-0.0143028535,-0.09774017,0.017588539,0.027797554,6.0583185e-05,0.08029966,-0.029449018,-0.003344859,0.006806208,0.033098947,-0.020704273,-0.03955737,-0.048457365,-0.018566146,-0.0079271495,0.056325436,0.01474045,-0.022326713,0.015849762,0.0664556,0.08383713,-0.000702608,0.030798247,0.013987635,0.014466129,-0.0546717,-0.037393764,0.020171147,0.011717437,0.012509333,-0.08432503,0.07354041,-0.027543902,0.045578074,0.0591985,0.04126812,-0.098123446,0.0090963,-0.025321677,-0.002118831,0.006968908,0.0007023838,0.00040976677,-0.02077757,-0.0012392157,-0.031539008,-0.0043517617,0.01894033,-0.014039059,-0.055323392,-0.066177055,-0.003651293,-0.052285854,-0.05296385,-0.0032713176,0.0035577535,0.025292207,0.02227027,0.034870073,-0.00028736837,-0.06678051,0.0020557411,0.030994326,0.027000902,0.058795266,0.0011998479,0.004626553,0.019410335,-0.0014637043,0.034541897,-0.059289977,-0.021463085,0.028803632,-0.009759541,-0.014775111,-0.004632229,-0.013958076,-0.00012336056,0.060743075,-0.0018839038,0.039338127,-0.001659239,-0.015354251,0.016402978,0.010727175,0.044231646,0.00015315243,0.046449885,-0.024528915,-0.03376889,0.044069927,-0.045002002,-0.0036940305,-0.03730036,-0.114927106,0.008725189,0.017171234,0.0044411276,0.04464228,0.03730723,-0.033288676,-0.021471709,0.08643292,-0.005174829,0.07951014,0.03679227,-0.03555306,-0.016670924,-0.053157687,0.027135411,0.004753121,0.029459354,-0.003626605,0.0150053,0.0005833119,0.045931518,0.00070872303,0.032854553,-0.0439702,0.0017497907,0.028087609,0.022378882,-0.034479022,0.00025435875,0.019805733,-0.005586509,-0.01149823,0.03704185,-0.0015436122,-0.033849087,-0.01795789,0.043680318,-0.039004005,0.063042045,0.024617784,0.023670081,-0.100265265,0.010111844,0.007157284,0.034695778,0.019485148,-0.010009103,0.03840785,0.042356424,-0.010137206,0.023418436,0.015239941,-0.016803874,-0.04598638,0.029568987,0.05872439,0.0126211755,-0.0069953143,0.05552213,-0.0077519086,-0.019330267,0.029943591,-0.033498496,0.016668506,-0.016495036,-0.024918398,-0.011960153,-0.05970807,-0.006707876,-0.007154311,0.012280887,-0.0023212603,0.045608263,0.054461274,-0.038315963,0.019130101,0.04665809,-0.034861304,0.020024331,0.051905617,-0.0129114585,-0.032761928,0.021054406,0.019797053,-0.058998358,-0.06939887,-0.016800346,0.010991159,0.014572453,-0.028737633,-0.007992548,0.029453708,-0.08613285,0.007538205,-0.0012327703,-0.038039185,0.008507305,-0.018285444,-6.542616e-33,-0.0022019367,-0.032171037,0.0008217904,0.023770334,0.013331792,-0.017945755,-0.003885953,0.072098695,-0.046813127,0.007815595,0.008763726,-0.0063770204,0.016857399,0.0015851888,0.060060654,-0.033756264,-0.0020955454,-0.0013848098,0.01723223,-0.050547007,-0.047744222,-0.008849159,0.085560635,0.013877767,-0.0026790956,-0.073092446,-0.055389367,0.038953822,0.0056925593,0.032731887,-0.017845692,-0.0264246,-0.0028236716,0.04795246,0.017832415,0.051247347,-0.054342166,0.06472977,-0.0035646847,-0.008636526,-0.032910768,-0.007647188,0.0030855727,-0.026863663,0.020702034,0.017266424,-0.048977826,-0.03508471,-0.008682005,-0.0074156756,0.0036892125,-0.046952195,-0.012175365,0.0028964235,0.05839703,-0.010827313,0.001101272,-0.0532699,0.008589104,-0.0175997,-0.027178144,-0.010479413,-0.030572414,0.009033093,-0.010664017,-0.03867841,-0.061026603,0.021612931,-0.0615835,0.041273452,-0.020621808,0.074980475,-0.036661554,-0.06044973,-0.016444957,0.021142922,-0.0009924101,0.024107983,0.034977153,0.05961893,-0.0016056005,-0.03128592,-0.018680995,-0.009022742,-0.009423912,-0.010920137,-0.015416292,-0.006108132,0.017079495,0.0030555504,-0.05913292,-0.007587419,-0.055954836,0.02669637,-0.04468357,-0.023619732,0.072493,-0.015830178,0.0032203305,-0.021075705,-0.012435783,0.03490211,-0.07005468,0.016189897,-0.0146720065,-0.005371042,0.02053394,-0.039947655,-0.05739644,0.026706936,0.022280823,0.0063588927,0.018678926,-0.0800136,0.017356008,-0.043553494,0.016662953,0.040512387,0.034171823,0.0131574515,0.02317322,-0.00816907,-0.02974424,-0.020264829,-0.018342549,0.014076,-0.016683102,0.029522486,0.049045704,0.039227903,0.016135069,-0.03452081,2.6526985e-07,-0.018764924,0.05622029,-0.033778735,-0.00586661,0.05158527,0.019983487,0.028988194,-0.0025168522,0.029350137,0.011224188,0.07636961,-0.060271163,0.043824952,-0.005799983,-0.014290177,-0.009598969,0.068405144,-0.01069846,-0.05909009,0.033893235,-0.0016158265,-0.013457327,0.028577464,-0.023788108,0.020999495,-0.04690982,-0.0151739605,-0.007339603,-0.006891147,-0.023980252,0.000948912,0.02163486,0.00059356034,-0.094205394,-0.0026346887,0.018254545,-0.0010277599,-0.034771066,0.04958313,0.047721483,-0.022225577,-0.04030849,0.0011278078,-0.029729208,0.058273625,-0.013975695,0.019769238,0.025255091,-0.04197815,0.0061612213,-0.030654812,-0.02357417,-0.07067308,0.01908002,0.000741319,-0.020126538,0.04433408,0.0033230074,0.049947217,0.014666127,-0.061627373,0.0596129,0.02183096,0.031578347,-0.0037915832,0.019320812,0.02590709,2.8542693e-34,0.026207503,-0.070252016,0.044152543,-0.05947111,0.045773134,0.0008204892,-0.0040227957,-0.0062905606,-0.030121867,-0.06609388,-0.033336878
0016000000UdeNOAAJ,0.04354498,-0.028248975,-0.008526342,-0.005891572,-0.050978497,0.0040981597,0.05807912,0.010547105,-0.07570521,-0.03422115,0.031883504,-0.017184552,0.036446966,0.033793263,0.02397912,0.0646919,-0.007429408,0.028862014,0.016044192,-0.0003141508,-0.0071246345,0.008488259,-0.04511853,0.013945789,0.026628958,-0.068862095,-0.01257538,0.023564309,0.013643849,-0.018363679,0.12051326,-0.018612497,-0.0010439567,-0.02546299,2.0865161e-06,-0.014051121,-0.01632471,-0.030660303,-0.020683978,-0.011117677,0.07924568,0.017825624,-0.047356434,-0.01885953,-0.0039021918,-0.024798537,-0.0016276289,0.08155354,-0.033829626,0.0037390192,0.013282092,-0.038301315,-0.08046003,-0.00354578,0.050314263,0.036847904,0.013270718,-0.004211745,0.01716498,0.010303753,0.015647322,0.011648756,-0.0044011413,0.016290838,0.024341341,0.010851521,0.03569909,-0.01152907,-0.025069557,0.04067123,0.018500477,-0.010236762,-0.016367735,0.03203241,-0.013279653,-0.00039200328,-0.030898526,-0.012130925,0.016814753,-0.039891724,-0.004225382,0.04358447,-0.05117427,-0.02751213,0.0021343306,-0.08348075,-0.0064970786,0.02578285,0.010754861,-0.039629154,0.047583677,-0.006902806,-0.056453943,-0.043811385,-0.0043178187,-0.011769428,0.029290475,0.038773738,0.07949426,0.039966747,0.05148053,0.03629757,-0.051136844,0.0010278842,-0.009442673,0.045619324,0.01887845,-0.06082898,-0.04590469,0.047993146,0.04284489,0.014308717,-0.015664315,-0.016432678,-0.047159478,-0.0068789823,-0.012502373,-0.022340277,-0.092867434,0.050660655,0.07227545,0.023562906,-0.019656992,0.011952697,-0.018360004,-0.02483193,-0.015500825,-0.0031728519,-8.768563e-06,0.004134279,0.013567321,0.024775552,0.02800247,-0.027659742,-0.01469532,-0.080967404,-0.0064391876,-0.008922417,0.038573727,0.006724881,-0.0011501005,-0.0036659124,-0.023518778,0.00036983154,-0.04036637,-0.023239143,-0.014118543,-0.044250555,-0.0077525745,-0.016033556,-0.009737613,0.019337246,-0.025313659,-0.00022914632,0.0036355131,0.014294729,0.030285105,0.0001883786,-0.028550176,0.05909341,-0.007067688,-0.0034934592,0.030956917,-0.00011713184,-0.054388944,-0.00011918094,-0.05706972,0.03624038,0.019466965,-0.0112302415,-0.02209687,-0.019208763,-0.02980692,-0.0010144035,0.0427307,-0.030369995,0.04275131,0.07446037,-0.04200056,-0.004320981,-0.03714968,-0.07630503,0.05190778,-0.03183422,0.008246939,-0.015491216,0.00038845363,-0.03266435,-0.0074363654,-0.031061895,0.017372385,-0.020213606,0.040964775,0.03749072,-0.008231827,0.0048725884,0.005090887,0.00045742668,-0.052365024,0.0024214124,-0.0066712615,-0.018818641,0.0052633574,0.09519128,0.013414794,0.008438848,-0.00122167,0.031958155,-0.017995633,0.0054019857,0.044887234,-0.027167901,-0.019349389,-0.00063498283,0.021390142,-0.04777016,0.027934885,0.04346376,-0.045026425,0.07226256,-0.050818328,-0.00034241658,0.037543304,-0.013852039,0.07889061,-0.018749835,-0.012087042,-0.006304909,0.0061577265,0.023837628,-0.0006297124,-0.016467918,0.046854295,-0.0449024,-0.02278776,0.006031755,0.061353,-0.0010610196,0.01010129,0.045352392,-0.0006682208,0.006307624,-0.0038445732,0.025792055,0.05349436,0.010221873,0.029723225,0.019342791,-0.07141784,-0.020653084,0.004915049,0.0048105023,0.0679566,-0.014668048,0.029141707,-0.08283898,-0.0027843711,0.007389521,-0.010372207,0.006112459,0.037796006,-0.05060817,-0.005167137,-0.020979285,-0.009850421,0.0027766621,0.07818809,-0.027929438,-0.031293068,-0.022669397,-0.010232265,0.008350119,0.0022112597,-0.020967718,-0.007893716,-0.021555865,0.014759835,-0.046775434,-0.022267379,-0.010383585,-0.0057232794,-0.061502248,-0.032648183,-0.0050943573,0.010647602,-0.033497814,-0.04599282,-0.06457615,-0.08418903,-0.037387792,-0.009011817,0.0034582678,0.016788032,-0.04410398,-0.027637886,-0.0635128,0.015793458,0.041827645,0.029806342,-0.020827651,-0.065348886,-0.059098966,-0.06785472,0.0151730785,-0.06792581,-0.014851843,0.029887611,-0.004779407,-0.026733886,-0.0072452333,-0.00023872506,-0.029177247,0.032270424,-0.0018027399,0.08259768,0.05649008,-0.026008794,0.005421351,0.00012974348,0.13843116,0.013344725,-0.036763668,0.016450545,-0.018558871,-0.026321055,-0.035941016,-0.05018274,0.0010492735,-0.057847857,-0.024079563,-0.012830444,-0.09076704,-0.020789023,0.052044507,0.042216435,0.008501167,-0.03266894,0.015430389,-0.0037253709,-0.001170016,-0.003670486,-0.0072631375,-0.026350375,-0.0067601814,-0.012063811,-0.077890776,0.052751448,0.03117761,-0.027664844,0.025079407,-0.07444042,0.03094034,0.024964394,0.0109260855,-0.050632916,0.0061607044,-0.0024629845,0.01835535,0.0069920477,0.0389772,-0.039807457,-0.008897547,-0.016858567,0.019436203,-0.029558422,0.044354808,0.053378887,0.042134915,0.011561702,0.01145592,0.009451069,0.04491635,0.054034866,0.007413469,-0.05343203,0.012957085,-0.018293358,-0.022872554,0.04402037,0.005376619,-0.0039773164,-0.009841139,0.014796147,-0.01524228,-0.011716217,0.024134936,-0.003814002,-0.035961267,-0.007744358,-0.0062881536,0.00040547992,0.06252689,0.035124827,0.07619475,0.005267806,-0.00886244,0.020007718,0.012844756,-0.036024313,-0.003211157,-0.023333762,0.02825778,-0.026314426,0.022216164,0.011273777,0.0035684346,0.04231298,-0.0048080627,0.023152085,-0.035369176,0.022738086,-0.08411503,-0.02236955,0.041991644,-0.029858166,-0.031187229,-0.0006764086,0.08873681,0.03541651,-0.026845882,0.028789693,-0.0053920476,-0.061014283,0.00052593544,0.037224673,-0.0407683,0.0750631,0.008314668,0.023095027,-0.01637632,-0.036255155,-0.037998084,-0.054292623,0.023947977,0.13517544,0.03640367,0.041776434,-0.061863158,-0.06667022,-0.042550057,0.04022628,0.016565986,0.005283347,-0.034594037,0.029531598,-0.077680744,0.034555763,0.0021606248,-0.064136796,0.036931884,0.01723507,0.040815298,-0.003849125,-0.017729582,-0.033081327,-0.010919229,-0.06514342,0.031349313,0.018407647,0.01713794,0.080672294,0.024685688,-0.021419218,0.0032432433,0.028371047,-0.053202983,0.006503685,0.013930652,-0.021423459,-0.007982726,-0.056175325,0.035671458,0.0015633231,0.052733127,0.028656166,-0.019551443,-0.008823723,0.07257187,0.033974487,0.027348561,-0.052037388,-0.06984856,0.019065827,0.13765585,-0.001885759,0.06852775,0.016581098,-0.024538012,0.007952848,-0.027135339,-0.012811841,-0.045465473,0.00475471,0.04299064,-0.0010847424,0.0010486007,-0.028644754,0.0040103253,-0.04974578,0.0116934255,0.002733336,-0.0074762055,0.0132942125,0.0067507215,-0.0047155037,0.036568034,0.0039899135,0.03952436,0.028722186,-0.010440625,-0.019301187,0.068393156,0.01816123,-0.054499567,0.020655248,-0.011125419,-0.03631904,-0.025367327,0.00436144,0.027773524,0.0040970338,0.02110396,-0.006771206,-0.016922837,-0.06364599,-0.088355914,0.050684046,0.01795698,-0.04371714,0.038468987,0.03057359,-0.01669327,-0.04292633,0.03998063,-0.038592197,0.051709194,-0.012281897,0.04613033,0.014708355,-0.02432854,-0.016124101,-0.007960716,0.08239681,-0.017558724,0.045216717,-0.0027610234,-0.01577364,0.042435218,0.013510812,-0.07931521,0.02143201,-0.0016722933,-0.0654406,0.053692773,-0.022646692,-6.644252e-33,-0.033081193,-0.0124765895,-0.0045754085,-0.0044643823,0.03856581,-0.0033043732,0.035434518,-0.00885449,0.016724026,-0.0017694491,0.0029572707,0.024666473,0.03476075,0.023639234,0.061631016,-0.04995904,0.0030272,0.011805438,0.009462498,-0.017917644,-0.082930945,-0.00901847,0.01932592,0.011199597,-0.02341748,-0.04297482,0.008803666,-0.006209893,0.029183682,-0.008090075,-0.01296032,-0.043427218,0.0022545722,0.06989873,-0.005129799,0.021610694,-0.0591622,0.045233298,0.0060107624,-0.025123447,0.003897084,0.016799534,-0.0366101,-0.016012883,0.019706469,0.05511287,-0.023533968,-0.057463527,0.0043231803,0.027581703,0.02847603,-0.034892846,-0.0077820085,0.051157475,0.015018965,-0.029188057,0.003850927,0.069035076,-0.03552379,0.0007851327,0.07610866,-0.0057409825,-0.0039430517,-0.01612781,-0.006698003,-0.0021339073,0.017195672,0.057468075,0.005889943,0.037425343,-0.023440046,0.04967003,-0.0009793509,0.042797573,0.05303728,0.046288874,0.053765774,0.015468128,0.0518884,-0.009429891,0.0030975996,-0.022184307,0.013767736,-0.013811776,-0.017530318,0.030519579,-0.027737517,0.02716762,0.0026357367,0.051639948,-0.0420929,-0.0032485763,-0.031634435,0.008883878,-0.012009612,-0.07190332,0.01563373,-0.046570014,0.01481128,-0.057392202,0.029627414,0.038419917,-0.039517336,0.011689856,0.0067388434,-0.0331231,0.044368804,-0.021785064,-0.015581254,0.020154834,0.0045731803,0.0039631133,-0.031731125,-0.02636519,0.053006195,-0.03183622,0.0010624558,-0.0024336101,0.008841691,0.02020745,0.021426154,-0.019689607,-0.051391486,-0.030926462,-0.028293109,-0.01014544,0.013225699,-0.049126755,0.05132596,-0.008893492,0.0075820684,-0.0041138227,2.7627235e-07,-0.003752669,0.019985368,0.001756431,0.05639826,0.06250191,-0.03465147,0.017395351,0.035264514,0.015513138,-0.071317546,0.04817103,-0.04910428,0.05061777,-0.04907479,-0.010699428,-0.013154854,0.10045934,-0.02714961,-0.079991914,0.005633954,0.041363858,-0.05577071,0.0057679256,-0.016746083,0.027299196,0.04568956,-0.008676112,-0.09045603,0.078998394,-0.017498259,-0.03855848,0.02316361,-0.029327674,-0.09357312,-0.008913808,0.05140349,-0.0023492957,0.014140959,0.038644146,-0.014828659,0.015371639,-0.061092474,-0.041646723,-0.027137367,0.030858375,0.007507724,0.04123088,-0.022436658,-0.034330796,-0.03806783,-0.012817792,-0.047179878,-0.031806793,0.005698563,0.02695101,-0.037020124,0.065636896,-0.028211141,0.039275527,0.025406573,-0.034124598,0.092985146,0.028265478,0.0012202167,-0.01232039,0.00566672,-0.03825853,2.827102e-34,0.06548518,-0.07282335,-0.02917277,0.021593561,0.012415684,-0.014338369,0.009312048,-0.015469913,-0.0064477297,-0.012380141,-0.020434897
0016000000UdeWAAAZ,0.026639918,0.0063820696,0.002109901,-0.0048623397,-0.016936751,0.0019290787,0.035235222,0.05092654,0.0026760318,-0.034496773,-0.004614557,-0.017440319,0.034447648,0.061441116,0.009681567,0.016461937,0.0001620542,0.011686654,-0.09365037,0.0028334698,-0.027064268,0.011641872,-0.04308531,0.029040288,0.007055462,-0.009475546,-0.009378543,-0.007965677,0.0031563311,-0.06073518,0.06927222,0.011482846,0.047707997,0.009649599,1.9274785e-06,-0.010118211,-0.044211593,-0.004626162,-0.032729656,0.031247843,0.050700817,0.026263008,0.025073621,-0.022010151,-0.008547145,-0.030408023,0.059036057,-0.049600862,-0.017901186,-0.031171028,-0.0071950858,0.031719953,-0.099564046,0.04109761,-0.017769339,-0.09052746,0.0012004306,0.026352521,0.015856732,-0.049198292,-0.047244135,-0.0010549363,-0.0130074145,0.0015265126,0.08416304,0.04550598,-0.0038217786,-0.04260846,-0.010557347,0.010598002,0.05457229,-0.019717615,-0.018199325,0.083766416,-0.0033782886,0.023495002,0.005219955,0.0062282295,-0.016320726,0.005594912,-0.10213656,0.041377235,-0.027516825,0.012627819,0.007007167,0.04893542,-0.011398524,0.029956287,-0.0052548796,-0.007923292,0.057922993,-0.035604063,0.047459353,0.010545499,0.0095041515,-0.039460327,0.060034003,-0.04988954,0.033243664,-0.008093118,0.042471886,0.0535145,-0.05460107,0.0003401938,-0.007876801,0.037071973,0.04366078,-0.0014615111,-0.030166207,0.038598616,-0.007828149,-0.004590268,-0.07183277,0.036875002,-0.044446405,0.0021940186,0.015171482,0.06981855,0.006965215,-0.0042703818,0.07022786,0.051232066,0.0032686784,-0.027117152,-0.002746743,-0.010900367,-0.05580198,-0.017517699,-0.0012333932,-0.0008669716,0.0064698374,-0.004002267,0.04283975,-0.06610385,0.01710707,-0.027169686,-0.014280009,-0.022631815,-0.054839607,0.05072793,0.01686702,-0.04332187,-0.068055354,-0.006698264,-0.0062169246,0.013792589,-0.008971333,0.0043745153,0.025368609,-0.016503217,-0.024401566,0.020986948,0.0016080561,0.019351125,0.015240195,0.00047114343,0.079732396,-0.03340282,0.0012905749,-0.01762374,0.008103043,-0.036665846,-0.04157626,-0.03314346,-0.07852173,-0.011724696,0.023720779,0.056087203,-0.020108677,0.0056801867,0.013347487,0.008082559,-0.044099722,0.039976463,0.0028078936,-0.029459482,0.028541775,-0.008618585,-0.005240527,0.03557178,-0.03296695,-0.13532813,0.021162063,-0.023926822,0.029437343,0.03366442,0.04204881,0.07756189,-0.007743366,-0.015832238,0.01612425,0.0006940341,-0.008148753,-0.0037985218,0.020506006,0.00915472,-0.058703367,0.023597298,-0.026445983,0.039120223,0.00692736,-0.040894073,0.034094762,0.027640335,0.01596735,0.024350578,-0.07435425,0.026892789,-0.05825047,-0.04091732,-0.0072571216,0.017160635,0.011507538,-0.03269761,-0.016785642,0.03027764,0.070135094,-0.013291925,-0.03452505,0.049565464,-0.028415836,-0.06348215,-0.006834274,-0.0052075437,0.114895836,0.015170306,0.015959745,0.01750359,0.00534639,0.01598693,-0.012031755,0.0049786405,0.036166828,0.005756594,0.032700945,0.03805687,0.08618522,0.09782056,0.011153276,0.00021601545,0.022514414,0.02212744,0.022512836,0.023413414,-0.024169868,0.056412745,-0.108125046,0.022202289,0.03139241,-0.025525857,0.027684832,0.00457792,0.050868716,0.0034209397,0.03209033,-0.030689845,-0.012728722,0.038948324,0.029263027,0.024304409,0.015217911,-0.037424527,-0.03953454,-0.043835193,-0.0056610378,0.012931699,0.042053156,0.016712828,0.010968667,-0.0057166796,0.00646071,0.0055251913,0.049231544,0.00843404,0.013680661,-0.0058670505,0.00075103086,0.04545365,-0.05095235,-0.0086867735,-0.005820767,-0.059923615,-0.01919605,0.007809153,0.007926398,-0.008461147,0.014568814,-0.09718812,-0.11676924,-0.061113607,-0.006321902,-0.053511236,0.017416129,-0.039526142,-0.020702379,0.0046333796,-0.026621353,0.022245606,0.040278576,-0.004981239,0.0048995293,0.0028754945,-0.04264123,-0.030695854,-0.041615847,-0.021779632,0.02562591,-0.004088253,-0.017400822,-0.07052552,0.0014645618,0.030706827,0.017878424,-0.010694405,0.08895222,0.03764435,-6.30434e-05,0.013283338,-0.02375909,0.07649711,0.013667586,-0.00878898,0.019620385,-0.009318439,-0.057081528,0.035443377,-0.022931354,-0.008368315,-0.07051797,-0.003960577,0.000992778,0.01786836,-0.04024377,0.06995023,0.042968545,-0.08706847,-0.015112661,0.06918883,0.04421965,-0.003804617,0.026623681,-0.026920909,-0.042912025,0.03796527,0.022742802,0.001166011,0.00994862,0.009580927,0.014051608,0.022043327,-0.028822644,-0.006084256,-0.029728344,0.003782287,-0.03957708,0.06934021,-0.03377732,-0.056627885,0.07253894,0.03964414,-0.014728863,-0.025132068,0.020307077,-0.05936103,0.016580032,0.03254612,0.027368538,0.020139037,0.032835294,-0.013316193,-0.025326,0.024546362,-0.062130094,-0.046490185,-0.004889398,0.04975667,0.01877145,0.053981267,0.03237757,1.4434081e-05,0.06952523,-0.015441216,0.06260505,0.003588707,0.044206146,0.0026701177,-0.03343966,-0.066713355,0.013553486,0.0054612993,0.010664653,0.04007825,-0.026249139,0.039122287,-0.02974425,-0.03228155,-0.0104410555,0.034553554,-0.02113918,0.009295764,0.013097956,0.033936,0.026114287,-0.038427982,-0.042402886,-0.025572477,-0.0058985525,-0.033568803,-0.022307757,0.009315769,-0.06580149,-0.06356433,0.009776894,0.028273504,-0.041591648,-0.06557751,-0.008407224,0.033856794,0.007762794,-0.021797935,0.061689463,-0.008824418,-0.009917964,-0.026330484,0.018861588,-0.0038852892,0.07070082,0.0027612473,-0.00106692,-0.012191735,-0.00042487695,-0.003303616,-0.06144868,-0.018305149,0.027571887,-0.038496368,-0.029695759,-0.027767792,0.061478302,-0.019986005,0.028378615,0.02534896,0.040568344,-0.06137323,0.020807575,-0.04421875,-0.037849735,0.01069264,-0.027546193,0.011240372,0.017694749,-0.0104089845,-0.015589762,-0.0132746855,-0.051267914,-0.034745928,-0.066062376,0.041481312,-0.03410346,0.06841462,0.017532663,0.04722552,-0.007631942,0.015998913,0.051916383,0.017988171,0.11752942,0.008232977,-0.04331858,-0.042257134,-0.003031673,0.020401077,0.01739678,0.007212142,0.004740247,-0.011061796,-0.03288664,0.01622796,0.0176914,0.036901653,-0.030614974,-0.009529934,0.032408394,0.02351462,-0.01382104,-0.013517346,0.018884085,0.021897824,-0.038682245,0.044918325,0.0023147909,-0.024333209,-0.01920798,0.0016797072,0.02266859,0.03035358,0.0866053,-0.00757872,-0.028475054,-0.06148061,-0.010414193,0.024385717,0.027841637,-0.009952655,0.0020758072,0.0047834516,0.022054773,0.02225478,0.013936013,-0.005974229,-0.051254917,0.007855906,-0.01248277,-0.055143766,0.0320255,0.06332,-0.06400003,-0.022865288,-0.026310649,-0.04207717,0.03738083,-0.0060452307,0.0011018033,0.028510455,-0.06044766,0.032172795,0.040689968,0.037867114,-0.02567407,0.029400304,0.015559183,0.0037129591,-0.044064693,-0.010610235,-0.022118784,0.022938922,-0.010449261,0.04593178,-0.003485999,-0.0020767008,-0.01144031,-0.001543449,0.015543999,0.039713718,0.045226026,-0.039101094,-0.0017696207,-0.056198325,-0.00017031233,-0.075461164,0.012330856,-0.04942207,-0.088840015,0.02293111,-0.008063008,-6.413482e-33,-0.03841132,-0.07471615,-0.024831623,0.046973392,-0.0052103708,-0.036058806,0.02435128,0.035313968,-0.042808965,-0.015471394,0.018125353,0.0061374004,0.03102787,0.04004681,0.030447457,-0.010735424,0.013237308,-0.023094831,-0.022607123,-0.038562972,-0.05391255,0.047339488,0.056986243,0.05523792,0.006641463,-0.043176092,-0.029067256,0.059082415,0.048637647,0.02248858,-0.00014554177,-0.0043719555,0.0024185146,0.0318084,0.0063645765,0.051630408,-0.045952436,0.036575433,0.0002003383,0.03180334,-0.039044697,-0.021233201,0.069384076,-0.058834806,-0.028478166,-0.016485605,-0.02795295,-0.04462133,0.0496131,-0.005498641,0.030145401,-0.0110097565,-0.014726312,-0.001735035,0.07556007,0.029110042,0.008943066,-0.012219236,-0.0073306924,-0.064067006,-0.06839314,-0.01756866,-0.014262348,-0.02351444,-0.041473716,-0.04030114,0.007983126,-0.049547136,0.013346252,-0.020042386,-0.052704666,0.10318629,-0.019011956,-0.051943794,0.03322096,-0.03295555,0.031224947,-0.0077164685,0.063320056,-0.054942407,0.042063493,-0.037566524,0.022783874,0.009916593,-0.02573718,-0.05802054,-0.040900715,-0.029779358,0.0033520963,0.0385128,0.019682981,0.07058626,-0.014046929,0.0123309195,-0.004219482,-0.022146052,0.040241703,-0.005148174,-0.008485951,-0.035003975,0.020383736,0.11132963,-0.06103618,0.005018769,0.01397215,-0.00853509,0.052578043,-0.0473117,-0.04682681,0.03632289,0.012407943,-0.020676928,0.034180414,-0.033396088,0.025487158,-0.019809425,-0.01721602,0.05600501,0.02624421,-0.003265564,0.056860257,-0.027595654,-0.03139693,0.03645977,-0.052389625,0.025515126,-0.0014358135,-0.038404267,0.035948846,0.026660638,-0.010095914,-0.0055672093,2.582602e-07,0.01709286,0.051046446,0.026696103,0.023260009,0.015078658,-0.02826345,0.023240991,-0.01584425,-0.031961482,0.00852617,0.017135784,-0.031682096,0.004839923,-0.028764987,-0.008629116,-0.029557433,0.029448358,-0.030540876,-0.067990445,-0.026474567,0.012227678,-0.015532029,0.008726302,-0.020509863,-0.014738633,-0.015664527,-0.003425313,-0.016489545,0.060623795,0.026996773,0.043140527,-0.024469959,0.0014274046,-0.021687726,0.0017977201,-0.0013760392,-0.006278265,-0.016221616,0.01755321,-0.0062454664,0.027879793,-0.064359725,-0.015417855,-0.036226615,0.022113312,0.0064042737,0.0021001208,-0.00873724,-0.0923191,-0.024712043,-0.030791515,0.009587215,-0.019903602,0.050514467,0.0021825589,-0.012753321,0.042491663,0.015642751,0.05778998,-0.006795631,-0.020946689,0.067134045,0.0109058535,0.016913835,0.020503808,-0.04171226,-0.05377112,2.6848307e-34,0.002766292,-0.021248346,0.045513052,-0.023376456,0.040435746,-0.022364957,0.029707853,-0.021056183,-0.03529619,-0.07060403,-0.03601758
0016000000UdealAAB,0.035988163,-0.018135399,-0.00097401073,0.009275411,0.009053364,-0.018384207,-0.0031282962,0.002478559,-0.036885887,-0.025443919,-0.0554527,-0.0002036692,0.0492873,0.07556915,-0.01898961,-0.0102407215,0.010529635,-0.008100993,0.045466896,0.028098954,0.032474637,0.014363105,-0.04118776,0.016089126,-0.017007405,-0.01766857,0.028240653,0.026084065,-0.010273514,0.022700505,0.03094038,-0.03599382,-0.014046453,-0.00918399,2.393586e-06,-0.012143344,-0.051683366,-0.0120845195,0.041804116,0.022242859,-0.032730456,0.0374684,0.022535019,0.054765366,-0.01874672,0.018206201,0.002020692,-0.020152567,-0.013186765,0.001818651,0.013320156,-0.03755625,-0.023535123,-0.047265865,-0.11399612,-0.0548373,-0.018031,-0.03978928,-0.046387263,-0.040321685,-0.004814123,0.0274535,-0.020970222,0.0007894985,0.09145909,0.030851262,-0.03199418,-0.02437245,-0.041444045,-0.01254407,-0.0046809055,0.04295247,-0.002649818,0.010275315,0.0172116,0.032205634,0.0032377688,0.048515357,0.0028118312,0.022491442,0.022272622,0.02694659,-0.0040495275,-0.028093139,-0.02716272,-0.03564258,0.0020598406,0.0050258855,0.03530447,0.021947611,0.0069372486,-0.0568192,0.018357884,-0.0071607493,0.012414087,-0.0128145665,-0.019807575,-0.030007029,-0.008307543,0.02057504,-0.05599633,-0.016036455,-0.037458215,0.024923675,-0.03504951,-0.014004615,-0.020117972,-0.031444848,-0.038407516,-0.0057993825,0.023424434,0.017720107,-0.025077283,0.07427887,-0.08588268,-0.042034347,-0.0641376,0.02856186,0.006444547,0.0653101,0.028507523,-0.007086035,0.03562783,0.009347373,-0.010828384,0.057107467,-0.06104483,0.017915057,-0.011324475,0.016734436,-0.012804475,0.026387712,-0.021568667,-0.037134767,-0.0005024575,-0.020731438,0.01740828,-0.04090515,-0.07748095,-0.03830334,0.038972147,-0.021759793,-0.056857746,0.034746133,-0.035169598,0.0065192897,-0.0184557,-0.013981909,0.015537852,-0.013316987,0.033254318,0.016457563,-0.004379252,0.0317997,0.005486417,0.0075589535,0.07871518,0.016468495,-0.05537881,0.0003883388,0.016110064,0.02924012,-0.025473341,0.017071864,-0.007886125,0.059211064,0.050266866,0.03415515,-0.020621262,-0.07474516,0.01781286,0.002181078,0.012836085,0.015017232,0.060938764,0.048117954,0.09952747,0.04493273,-0.017214641,0.05285309,-0.023195036,-0.10970588,-0.005676832,-0.011093348,0.010019561,0.04668236,0.011922867,0.022638062,-0.059381902,0.021861877,-0.0026347744,-0.0061462,-0.10712386,0.019212276,0.0013316064,0.0010319519,-0.026043931,0.08065451,-0.018646218,0.048948325,-0.03988296,-0.028366081,0.046535276,0.005187651,-0.00982135,-0.03558503,-0.028062183,-0.008189866,-0.03913623,-0.028264347,0.03705557,0.033955142,-0.032331128,0.034701325,-0.0060882475,0.039554395,-0.0027804964,0.021168742,-0.0731658,-0.014342543,-0.043500174,0.07103286,0.059697505,0.0010228393,0.020170536,0.025613938,-0.024139062,-0.011711014,-0.013696436,0.047848742,0.012427404,0.015392559,0.016943892,0.029006097,0.04298202,0.01792038,0.10396997,0.16224088,0.014412746,0.00037965854,-0.044117965,-0.018399958,-0.022396484,0.046148863,-0.008179582,-0.003246828,0.023529649,0.0007343243,0.01431616,0.011931195,0.023798428,0.026379772,0.041713968,-0.036287285,0.04535504,-0.040960398,-0.011773019,0.0101273125,-0.06843072,0.085494235,-0.047389045,-0.054377303,-0.04375759,0.011720685,-0.006470261,-0.021475665,0.033313967,-0.025879962,-0.021602478,-0.020122029,0.004114553,0.018064545,0.021702155,-0.016514337,0.0054117492,-0.011008872,-0.039205533,0.02997114,-0.025654035,0.014536082,0.026696835,-0.06722516,-0.044891976,0.0071076024,0.019909289,-0.026009604,0.08896315,4.8367732e-05,-0.048384864,-0.02798417,0.043300696,-0.022556743,0.020944215,0.0056229713,0.031606406,-0.029317886,-0.08672156,-0.01012231,-0.021539595,0.03258935,-0.035825476,-0.019950056,0.043706782,-0.032191217,0.01901297,0.005643872,0.03481557,0.081729345,0.028046528,-0.020298263,0.011973911,0.016309079,-0.0018483227,-0.023100525,0.030677838,0.019131098,0.034310497,-0.007935228,-0.030809043,0.10303147,0.020374693,-0.006715201,-0.018088847,-0.0147376545,-0.023011325,-0.014358469,-0.0289311,-0.040287837,-0.051219482,-0.1360576,-0.022149585,-0.020476542,-0.06246594,0.022453511,-0.008463214,-0.02022748,-0.04486079,0.13866605,0.0025517873,-0.011115215,-0.025942232,0.029525656,-0.04097043,-0.099743515,0.022625724,-0.023006715,0.030057432,-0.011189807,-0.050407324,0.020334125,0.002474973,-0.008332607,-0.018765325,-0.026654596,0.020042552,-0.00093389134,-0.020397844,-0.061428152,0.029340804,-0.056773376,-0.012364293,-0.027710738,0.0076318425,-0.017581632,-0.0013005638,-0.025120385,-0.0024481898,-0.005816383,0.020185724,0.027283335,0.023648582,0.016132247,-0.013215145,-0.011279007,-0.0039351685,-0.004163911,0.010213325,0.01940828,0.029988347,0.039050166,0.004523679,0.0032048938,0.06226138,-0.052687347,0.05836462,0.0507753,-0.023510642,-0.031284217,-0.052449875,0.040593192,-0.015251219,0.026570933,-0.07095913,0.061034758,0.0074312096,-0.027172083,0.030640194,-0.0053143315,-0.06317402,0.025178406,-0.0049024117,0.031459663,0.057529386,-0.05435592,-0.045814876,-0.04143678,0.07028596,-0.031201571,-0.015218038,0.039796732,-0.051092926,-0.037360594,-0.0054283827,-0.0048175463,0.03797874,-0.0103378445,-0.014075309,0.059106015,0.020142706,-0.03683964,0.051195033,0.028521856,-0.057363015,-0.016294962,0.05585833,0.036590043,0.028560227,-0.01997772,0.03112796,0.032510996,-0.020218002,0.052704304,-0.041968532,0.028884554,0.027609497,-0.021399826,0.016810741,0.010945075,0.02346085,-0.03434628,-0.021379713,0.055669967,0.02380523,-0.024440832,-0.021368563,-4.0454437e-05,-0.010722876,0.058416978,-0.020513987,0.013593827,-0.004130952,-0.021518856,0.011726311,-0.07959016,-0.011698825,-0.016197897,-0.0065003666,-0.013166835,0.05358631,-0.0020223814,-0.0008916318,0.020454252,-0.00032620033,-0.025602678,0.1003773,-0.061476115,-0.017478317,-0.07396559,0.007437914,-0.020053117,-0.019023577,0.0031193136,-0.014435635,-0.013154306,-0.0144833,0.010411922,-0.0116827935,-0.012385755,-0.028658561,0.03314946,0.038470063,0.06321113,0.04385005,-0.005782629,-0.032780517,0.0010151758,-0.018233392,0.03163605,-0.016415937,-0.019200547,0.054931402,-0.020117352,0.027156804,0.01340393,-0.060291607,0.0006931232,-0.022598522,0.04168099,-0.051228054,0.005973219,-0.022761652,0.0010593216,0.020830806,-0.000625846,0.013351929,0.0040726853,-0.0030860263,0.03651911,0.004110619,0.012645901,-0.024250535,-0.029617822,0.008072189,-0.07741207,0.06688504,-0.026465712,-0.003509582,-0.041404746,0.020629104,-0.07441641,0.05115291,0.006586758,-0.005991085,0.030789291,-0.030772211,0.004530234,0.0031786223,0.006381271,-0.044703387,0.03439483,-0.03491433,-0.032341782,-0.08921459,0.012377064,-0.00040188635,-0.053831972,0.02940562,0.03473338,0.017025553,0.05333317,-0.076514855,0.011956053,0.032259434,-0.04665939,0.013094695,-0.0049815234,-0.01027138,0.00412648,0.0071747354,-0.009645784,-0.0044394876,0.0061540683,-0.0008328451,-0.031622358,0.001806887,-6.5635064e-33,-0.010572704,-0.0069723884,-0.032536093,-0.026685413,0.0036215668,0.056321245,0.0034985847,0.017524894,-0.029118119,-0.050928693,-0.0060425703,0.037555244,0.020455953,0.028045675,-0.004943635,0.0027760176,-0.036270842,-0.028885392,0.0054161185,-0.017934384,-0.018891912,0.0016370271,-0.043747805,-0.038745742,-0.025769629,0.009234122,-0.016628696,0.049924687,0.042148422,-0.0012205449,0.021853475,-0.0051740324,0.0076372833,-0.14421897,0.0033389516,-0.011747064,0.012074108,-0.031575512,4.3640088e-05,-0.016279696,-0.020233905,0.0490143,0.057619654,-0.0039683874,0.033544414,-0.04853392,-0.015650183,-0.026748797,0.039190743,0.04934434,-0.045375004,-0.015721433,-0.024135424,0.1256192,0.09776931,-0.019611377,-0.0041911444,-0.032709647,0.025864663,-0.06567204,-0.04209102,0.043119106,-0.012082057,0.022219442,-0.058959115,-0.037242036,-0.059401598,0.043706123,-0.0058751446,-0.0078440625,-0.019177452,0.055184364,-0.026325515,0.011986039,-0.1325732,0.00052579603,-0.0220439,0.02383593,0.011876331,-0.00022779664,0.0051404973,0.013027706,0.015342086,0.0037592228,0.010016983,0.0066156024,-0.04021886,0.02058876,0.027601002,-0.0007986878,0.02910323,0.081933625,-0.032389563,-0.021368636,0.008710445,0.028023848,0.0072115553,0.031684227,0.0020619396,-0.009869541,0.0058913142,0.014811481,-0.024838239,-0.018430071,-0.019537952,-0.014460998,0.019975545,-0.035395693,0.020112516,0.029962981,0.04018241,0.017773159,0.016601656,-0.012836694,-0.010966673,-0.0058222734,-0.03794998,0.028670609,0.02915197,0.007853711,0.033580583,-0.006774187,-0.020255364,0.01881376,-0.047913916,0.019050214,0.024358818,0.054588027,0.06121486,-0.0032194613,-0.001968045,-0.030599184,3.0618025e-07,0.0841173,0.018325875,0.007629161,0.068795115,0.0066073127,0.016152676,-0.026665129,0.0091304025,-0.0010165572,0.008133864,0.07116938,-0.013135586,-0.011090341,-0.031100824,0.0075757564,-0.05628434,0.03612841,0.038920205,-0.042332005,-0.006700088,-0.07626388,0.016483517,0.03649992,-0.033398163,0.03161594,-0.0038225825,0.019384995,-0.030232906,-0.0069570797,-0.009846612,0.05039948,-0.013952052,-0.015461729,-0.05457787,0.0038576983,-0.008462324,0.0014064373,0.014493008,-0.029494788,-0.017246762,0.01517222,-0.011679725,0.00050645304,-0.044797912,-0.029481102,-0.024022639,-0.0025624554,0.0116943065,-0.052769076,0.034515407,-0.015156262,0.062355734,-0.02494697,0.03844171,0.024709359,0.02036445,0.022572268,-0.00246969,0.026550107,0.056802016,-0.027825214,0.105803184,-0.02172379,0.00011202868,0.008272486,0.0009871356,-0.0019296557,3.3047017e-34,-0.04105787,-0.057452124,-0.023787782,0.023617435,0.029485172,-0.014316454,-0.050225176,0.032503325,0.016996475,-0.021734826,0.01614866
0016000000Udee2AAB,0.01332431,0.0248601,-0.014315237,-0.09217557,0.04228465,0.02663495,0.006899519,0.0760031,0.061967995,0.030518701,0.008622701,0.06965281,0.045481425,0.0068940944,0.0038629957,0.05895753,-0.013453003,0.037691243,-0.005492854,0.008239631,-0.022249328,0.017862609,-0.038871,0.03191268,0.0102927545,0.003086448,0.007978059,-0.067095436,0.038747873,-0.064247414,0.06477952,-0.054350816,-0.0331746,-0.049563706,2.2745858e-06,-0.0057139085,-0.02302558,0.018042931,-0.028491788,-0.022314388,-0.030769534,-0.013634021,-0.00064095017,0.014795423,0.023998607,-0.01868746,0.016962018,0.009077176,-0.057156045,0.007604579,-0.0077170823,0.051082958,-0.049492445,-0.03565697,-0.028455686,-0.09133338,0.014932153,0.026331292,0.1013582,-0.04426895,0.020953195,0.069403544,0.0016424214,0.005543116,0.03221086,0.007412036,0.04392545,0.03569865,0.014511151,-0.037078105,-0.04237125,0.014163118,0.017401915,-0.021423329,0.0048421,-0.00334582,0.01528875,-0.00872022,-0.0024737827,0.003912264,-0.030295398,0.016193887,-0.0047700093,-0.013466043,-0.003528643,-0.0037023975,-0.007433157,0.015967976,0.010604775,-0.016601775,0.031086454,0.003910577,0.021074213,0.06701855,-0.028216459,-0.0076923682,0.02113084,-0.008410746,0.07468433,-0.05599726,0.024160704,0.009063079,0.045496963,0.01609096,0.016884191,0.03903397,-0.077549,-0.08204281,-0.097491354,0.039028633,-0.022425305,-0.0051253564,-0.022255104,0.08295883,-0.044841662,-0.011746903,-0.094387785,-0.0030235257,0.012236717,0.0029004575,0.017752133,0.03289103,0.010258039,0.0119612375,-0.06672609,0.040505853,0.02230338,0.030998198,-0.016162682,0.012583655,0.026983378,0.025381504,-0.0045015197,-0.055279225,-0.0076957876,0.06350635,-0.016387653,-0.0057796603,-0.031165041,-0.016986232,0.03313633,-0.0064333742,-0.01187229,0.011540692,0.0059468755,-0.022746436,-0.032678556,0.044292696,0.029278295,0.033006396,-0.090330325,-0.024972318,-0.03929731,0.015051945,0.035458326,-0.0060545714,0.08119125,-0.025086364,-0.038851473,-0.04866209,-0.058841214,-0.03505003,0.025951054,0.030184854,-0.0045899157,-0.056209896,0.084190525,0.032437038,0.003379582,0.045128256,-0.064410985,0.0082185045,0.0027221763,0.08746031,-0.0038995782,-0.045137353,0.036018655,-0.013751311,-0.058679987,-0.059367064,-0.01609779,-0.098574795,-0.0012986219,-0.027159521,0.0035125618,0.019514896,0.0010031158,-0.033677973,-0.021174358,-0.008979552,0.0012799969,-0.036557194,-0.10239655,0.023212168,0.03669554,-0.023994584,-0.019067805,0.0689847,0.00046575317,-0.017797634,0.035739854,-0.05698299,0.014151487,0.059179325,0.007897391,-0.020922458,-0.010567709,0.0032187093,-0.07496522,-0.055873845,-0.036932785,0.0018957335,-0.017438743,-0.027158469,0.020715881,0.03524542,0.010028875,0.028986476,-0.043103483,0.060421146,-0.020254558,0.08168427,0.022651,0.01697663,-0.0076116356,0.008764365,-0.039137002,0.0006949847,0.0021512627,0.0093456255,0.052253444,0.031866293,-0.0010101395,-0.050031953,-0.02059516,0.023156354,0.026415456,0.034164492,0.015253857,0.017542576,0.018176442,-0.03198668,0.036535732,0.0019133346,-0.011672598,-0.026011761,-0.06533271,-0.019752463,0.0012922015,0.03944471,0.013500208,-0.024516169,0.012410898,0.005991354,0.013926959,-0.05631697,-0.033110242,-0.00636675,0.0042973584,0.040510014,0.045878906,-0.049167927,-0.0347098,-0.015243399,-0.00888506,-0.018699162,0.076243386,0.021628337,0.011227418,0.030189086,-0.032494236,0.033111256,0.002544095,0.021003947,-0.01914691,-0.00031962685,-0.038227756,0.037219822,-0.019424263,0.029230487,0.027978865,-0.041739784,-0.017693738,0.0063872836,0.0055450546,-0.0059777587,0.00934642,0.010973468,-0.04050641,0.0020929244,0.032802913,-0.05661752,-0.0072898506,-0.044716287,-0.022192968,-0.018797614,-0.07086028,-0.010037735,-0.020715263,-0.014937589,0.0035102195,-0.011438351,0.004728894,-0.008332391,-0.083791286,-0.06515266,0.05924024,-0.0022090818,-0.016561262,0.015114829,0.006214334,-0.006299589,-0.036614846,-0.048573386,0.03930288,0.04087059,-0.056321103,0.047511507,0.042351577,0.065338075,0.058323465,0.017269116,0.010825074,0.008519749,0.023191554,-0.07490524,-0.033697113,-0.037317898,-0.13623612,-0.054346234,-0.040225584,-0.012891496,-0.018594442,0.01570953,-0.021245945,0.0004012636,-0.01219995,0.0029227997,0.030577227,0.037417907,-0.035927225,0.011492813,-0.051211346,0.079978935,0.044415753,0.027507024,0.060497265,0.068740994,0.0074520214,-0.0018865694,-0.038391523,0.046511088,-0.019422414,0.040119536,-0.018526252,0.021678232,-0.031330787,-0.041558202,0.022079894,0.03367172,0.00015293308,0.005235412,0.09260339,-0.034324702,0.03569883,0.026944358,-0.011528554,0.008427662,0.010217864,-0.02358332,0.027089808,0.020579606,0.04720402,-0.04313052,0.005690843,0.026389008,0.020687498,0.022519704,-0.085175075,0.026154645,0.015363384,0.020950915,0.087900974,0.015329089,0.0021389604,0.00096650166,-0.04190298,-0.05113857,0.0110075865,-0.016433725,0.002060503,0.009819674,-0.024715863,0.10336378,-0.0016302267,0.020883527,-0.02684554,0.0007943533,-0.027418876,-0.0013979697,0.008685437,-0.0063108723,0.060110327,-0.04744693,0.028878598,-0.024824576,0.07613962,-0.01153635,-0.013885395,-0.00735156,0.014751813,-0.068887435,0.0046670963,-0.013755985,-0.011051909,0.004927057,-0.030620124,0.0644838,0.06437947,-0.06638645,0.010256665,0.01717635,-0.003826344,-0.030268917,0.028759295,-0.055592664,0.012462412,0.024812201,-0.008515154,-0.010588531,0.014445236,-0.049317002,0.01766241,-0.038664803,0.08537043,0.052123677,0.036399223,-0.012438293,-0.00038975145,-0.047221802,-0.008160653,0.03991196,0.012919157,-0.049952526,-0.04009939,-0.008696393,0.03079136,0.012407059,-0.05722666,0.04463646,0.043896776,0.006221766,0.001585079,-0.02197511,0.0107483305,-0.044603344,-0.05033678,0.018720923,-0.013393172,-0.04679582,0.008649611,0.012767561,-0.014116127,-0.0020468184,0.0474431,-0.0007252117,0.051703434,-0.01719062,-0.006995892,-0.04711241,0.0797883,-0.0078009446,0.005134674,0.043801706,-0.011504345,0.011820998,0.0015219941,0.06545348,0.04451985,0.029795785,-0.0047942456,-0.008104968,0.014915603,0.019058233,0.0111857215,0.0033107141,-0.030552557,0.00085234025,-0.035453424,-0.023322778,-0.002591242,-0.019938089,0.02281797,-0.0067823273,-0.00022575671,0.008261067,0.031898204,0.029472824,-0.0068592858,-0.038955133,0.014950693,0.010706519,0.031313863,-0.0291502,0.0037105707,0.043190084,0.0057167145,0.06692101,-0.021251963,0.007404135,0.006899928,-0.015988542,0.040501855,-0.10561126,0.03956426,0.080692135,0.015888283,-0.00082872185,-0.010713229,0.010228869,-0.021689124,-0.0062328214,-0.0014506947,0.003820227,0.04754461,0.0076899854,0.05503647,-0.0052843597,-0.036679395,0.028991412,0.03828555,-0.025732622,-0.066563696,0.050904203,-0.0018317464,-0.0041524223,-0.011584005,0.018128244,-0.050950263,-0.004665745,0.014265848,-0.050422568,0.006364431,0.003573268,-0.0013954595,0.006920018,-0.017222097,-0.016867563,-0.0043390025,-0.070695594,-0.015173284,0.057273965,-0.058058474,0.022977386,0.0076971985,-5.8653168e-33,-0.011965754,-0.038079772,-0.025585644,-0.058499027,0.052415214,-0.0055089653,0.012613809,0.0193095,-0.041776296,-0.007160327,0.010428615,-0.0022363919,0.014205668,0.022807244,-0.0055753617,-0.018161314,0.0089213075,-0.0043065157,-0.011230869,-4.8192418e-05,-0.08324332,0.0035975238,0.061333776,0.023492966,-0.04552667,-0.0019265886,0.02684167,0.029201183,0.0060258317,0.0002359017,-0.025113454,-0.004405304,0.01277775,0.0064616096,0.033208754,0.018097213,-0.0077380366,0.025374204,0.021159152,-0.0114599485,-0.048759054,-0.07243368,0.029740201,-0.059794247,-0.016496185,-0.02766818,-0.020826513,-0.05162219,0.008388251,-0.02474494,0.044955287,0.009174262,-0.03114644,0.029434975,-0.033057537,0.0062396047,-0.018530961,0.06531605,0.01373672,-0.041424867,-0.047984473,-0.0033097505,0.0019611719,-0.03300064,-0.03912619,-0.039303716,-0.030289035,-0.0142383315,-0.02911849,0.07094274,-0.039843667,0.014584816,0.007391892,-0.061930437,-0.10651781,-0.019167174,-0.02292956,0.014904739,-0.05661923,-0.009219718,0.030634081,0.03336843,0.0043966435,0.0001225775,-0.00095307163,-0.009158088,-0.012063579,0.0015103836,-0.009889475,0.039039176,0.02973051,0.06793548,0.006302573,-0.0043712626,0.00027457898,-0.0048587904,0.029974053,0.009752644,0.015943563,-0.016313106,-0.042259425,0.104824215,-0.047062695,0.022873277,-0.0116059035,-0.023004245,0.0056497995,-0.059134595,-0.0066490993,0.032439295,0.041869223,0.022769358,-0.030187663,0.0045564123,-0.022061441,-0.017764715,0.024380459,0.028385147,-0.027835548,-0.011954826,-0.03864781,0.07943701,-0.012890282,-0.011893478,-0.052904706,0.027471839,-0.042452652,0.07657668,0.037620816,0.009868689,0.031696733,0.011800983,2.831848e-07,0.01848784,-0.0060382467,0.029557405,-0.0020094165,0.043635495,-0.012538173,0.011568828,-0.06745028,-0.026375161,0.00046332105,0.049997687,-0.10783438,0.0017617719,-0.051487036,0.02772966,-0.0724352,0.05609002,-0.06254077,-0.066618316,-0.039988525,0.03940165,-0.012770056,0.0006499264,-0.03543267,0.031790223,0.058702953,0.0051079127,-0.013834801,-0.03909824,-0.015581218,-0.07322239,0.030861074,-0.019463858,-0.050393123,0.0067280014,-0.0038283737,-0.008675417,0.08505329,-0.0021712203,-0.04262889,0.02841731,-0.0003754308,0.013223546,-0.021586854,0.0158838,-0.009859745,-0.031047266,-0.06497942,-0.013985921,-0.026681736,0.032964703,0.03692039,0.011112331,0.05455176,-0.0016453089,0.034931917,0.02177625,-0.013517264,0.033015724,0.05332735,-0.03543199,0.015854435,0.020269267,-0.048980895,0.029866965,-0.0077610393,-0.002643878,2.1110926e-34,-0.01132644,-0.052965604,0.01454284,0.020254388,0.03414976,0.009129184,-0.023924893,0.015854554,0.018502358,-0.030157337,-0.031959098
0016000000Udee8AAC,0.046718758,-0.0046885726,-0.039811976,-0.067671835,-0.011531648,0.016911255,0.040596552,0.031975288,0.016671084,0.016914671,0.033756975,0.015977858,0.035827782,0.09776729,0.01175434,-0.0020236883,-0.012134811,0.06512657,-0.013947831,0.02768611,-0.028149191,0.01049439,-0.04176127,0.06514716,0.03385263,-0.02786906,0.03947486,0.036185443,0.0284528,-0.080149226,0.013742144,-0.029328985,-0.060446065,-0.0085629225,2.4959863e-06,-0.040235396,-0.045024518,0.011279961,-0.06930404,-0.03225791,0.06105864,0.015396162,-0.012741245,0.030249102,0.0026952107,-0.03203369,0.05718134,-0.0069289925,-0.01362275,-0.011032503,-0.009019286,0.026795693,-0.05800746,-0.02550064,0.019105805,-0.009389316,0.0005778331,-0.0023556123,0.09872944,-0.050694264,0.02949301,0.020675784,-0.0305582,0.030189758,0.1057907,0.05331012,0.058108605,-0.05235585,-0.01592335,0.023686735,0.024458071,-0.004636224,0.016934263,0.052463822,-0.011309076,0.0045727734,-0.011304032,-0.034183066,-0.025458159,0.0005387796,-0.052439913,0.029585771,-0.0015152572,-0.015425478,0.006169192,0.01227982,-0.0060734972,0.043778073,-0.009650961,-0.013980347,0.06523694,-0.039698012,0.03577602,0.015380579,-0.044343665,-0.038694635,0.0022812805,-0.04762933,0.04291662,-0.0030875122,-0.00812096,0.017673703,0.021388695,0.032629002,0.021997154,-0.04991308,-0.0155710755,-0.07223566,-0.05493117,0.063297875,-0.0042620115,0.02214902,-0.027664732,0.079718694,-0.05110508,0.011622501,-0.101979285,0.020842368,-0.0086498745,0.04991309,0.004394233,0.06753445,0.04472115,0.0052108536,-0.015272054,-0.02105692,-0.042283036,0.008637515,-0.0060906634,-0.0056676096,0.03786768,0.020469671,0.016190229,0.0032199416,-0.02044567,0.052376315,0.016471151,-0.030547203,-3.1976528e-05,-0.049447853,0.027609702,0.0052878824,-0.049818784,-0.046775725,-0.009567421,0.014265002,-0.0038133652,-0.0082028955,0.0020533325,0.0043929736,-0.049904175,-0.019547308,-0.018401954,0.013558996,0.05218106,0.026949178,0.056310095,-0.05109161,-0.034808025,-0.021056129,-0.0027985382,-0.016014496,-0.025707308,0.01921902,-0.03399243,-0.024681829,0.081810944,0.04372887,-0.001803358,0.028861832,-0.06981345,0.026418762,-0.028313812,0.06697645,0.047622442,0.011089864,0.08300807,0.02605863,-0.014660033,-0.022625629,-0.032743596,-0.14695783,-0.014557032,-0.012730854,0.003045483,-0.0014141328,-0.048895396,0.025543904,-0.061851036,-0.0059586265,-0.026670456,-0.05267814,-0.0642309,0.022417853,0.024496997,-0.0358335,0.004658323,0.059901863,0.009286688,-0.009266414,0.0062915664,-0.0769766,0.019874368,0.099059485,0.016572205,-0.016401336,-0.014346684,-0.04325154,-0.0666819,-0.021303415,0.049439833,0.004380082,-0.039973002,-0.0050686947,0.020449977,0.026909841,0.04545866,0.03765265,-0.034627743,0.09979397,-0.046608273,0.054159526,0.03617324,-0.011325204,-0.03603736,-0.020302987,-0.002979495,0.01635313,0.010943798,0.082650825,0.05063024,0.027759854,0.028932782,-0.020256164,0.0094823865,0.023855723,0.06620071,0.0685937,-0.027913567,-0.013214203,0.030347003,-0.018004563,0.02450273,0.004698222,0.014917914,-0.04146118,-0.025639987,0.01287466,-0.01834971,0.0381908,0.019132951,-0.023589408,-0.012218282,0.0090727955,-0.021979293,-0.031629723,-0.043576706,-0.028377904,-0.017556064,0.039917074,-0.028675927,-0.06047776,-0.03409641,-0.030244635,0.013534359,-0.028162597,0.047246817,-0.061554972,-0.021925012,0.0050432957,-0.018929936,0.049466338,0.059719656,0.009428752,-0.029637564,0.007862516,-0.010965904,0.038175046,-0.061269138,0.01593162,0.041122787,-0.05218154,-0.03299173,0.017348954,-0.00834129,0.007746157,0.01750846,-0.05980458,-0.019447597,-0.07439403,0.007631339,-0.03486413,0.013384,-0.011316888,-0.015206741,-0.0017305879,-0.047411762,0.03448337,-0.032313332,0.04131145,-0.02761199,0.008253706,0.02800699,0.009343521,-0.054418012,-0.0001122717,0.041678064,-0.012928884,-0.016286276,0.042126674,0.029011687,0.003284084,0.0018871678,0.008390117,0.02414751,0.055399828,-0.008494725,0.054221507,0.004873889,0.05627082,0.021309447,0.008829376,0.018970642,0.010335242,0.04061896,-0.025177456,-0.063288055,-0.047116756,-0.1057047,-0.058133062,0.011394768,-0.009956699,-0.024221689,0.056897238,-0.02754054,-0.0418356,-0.05701942,0.009970369,-0.009473496,-0.005512169,-0.01248853,-0.022352459,-0.049912084,0.04413785,-0.018062918,-0.028689113,0.04586761,0.053190745,-0.04372505,0.006359959,-0.0150316665,0.08160853,0.012903692,0.011215001,-0.008774547,-0.029644107,-0.032641575,-0.03076616,-0.0027235674,0.02711684,0.04087724,0.023246862,0.035897337,0.006760601,0.022997692,0.013585121,0.03508278,-0.015865874,-0.015743745,0.004027085,0.050434873,0.055563334,0.022375377,-0.007258611,-0.014681066,-0.0008899232,0.014780037,0.013630004,-0.07222898,0.025131498,0.011089,-0.04757805,0.018695941,-0.026338423,0.0048565418,-0.022594064,-0.011332306,-0.034091514,0.0685945,0.0048988066,0.017150473,-0.0445812,-0.01539324,0.030539041,0.00089619076,0.0027932501,-0.014322995,-0.0023583674,-0.034728244,0.0023926615,-0.03706715,-0.037761424,-0.01945295,-0.0073995646,-0.0145142535,-0.020453822,0.09540281,0.026400281,0.007578734,-0.0007948744,-0.019319989,-0.013322355,0.032976337,-0.042468235,0.018087795,-0.037139248,0.0076050824,-0.007977,0.09491817,-0.058759216,0.03488294,-0.020777183,-0.015582888,-0.011463411,0.017029673,-0.05921845,0.056296065,0.0182868,0.017121792,-0.01741176,-0.028979525,-0.015323949,-0.012179524,0.040469073,0.04699059,-0.030639263,0.035397418,-0.016824506,-0.016267538,-0.0377642,0.013684953,-0.012706397,0.011185206,-0.019702764,-0.034456797,0.0052831867,0.039297692,0.0067731603,-0.019314464,0.0309182,0.033689845,-0.0043733204,-0.03129859,-0.026020497,-0.014523073,-0.03233208,0.005426163,0.035785425,0.034497783,-0.019400256,0.05434206,0.04828982,-0.029466044,-0.003337879,0.05908881,0.01994776,0.035882603,-0.06385482,-0.036061447,-0.08019612,0.023378301,-0.012076982,-0.011983576,0.017985387,0.0043836255,0.03453891,-0.04829586,0.055034753,0.033162534,0.0023959586,0.02884077,0.02422739,0.0064242557,0.0076580998,0.014873743,0.041557748,-0.033916812,0.005029678,-0.021329178,-0.04531273,0.0045132916,-0.020255879,0.023172768,0.02170992,-0.03921115,-0.023840802,-0.010510197,0.012730854,-0.035647515,0.012085251,-0.0016959689,-0.00020113568,0.018369757,-0.0039485376,-0.031322856,0.017648865,-0.021002512,0.059735592,-0.038051974,-0.0055938484,0.0014810881,0.03208918,-0.016466886,-0.10029333,0.04893139,0.04455725,-0.020715715,0.02291777,0.017193645,-0.020143986,0.008432257,-0.022571212,0.0033125835,0.006934414,0.027711265,-0.027404025,0.015921723,-0.013347869,-0.07018232,0.04127034,0.024053382,-0.027015334,-0.08150721,-0.0013318128,-0.033974316,0.054939408,0.024720969,0.05453141,-0.08127332,-0.0062915026,-0.038914382,-0.005776078,0.05452561,-0.0127395345,0.00044680384,-0.00044778126,0.0029745342,-0.0143091865,-0.004292311,-0.10318004,0.017115235,0.057723746,-0.09222011,0.011344929,0.032214243,-7.14197e-33,0.0004969968,-0.021106133,-0.0055484143,0.028390827,0.04624955,-0.0061641736,0.016619427,0.018741641,-0.009116032,0.012103352,0.034798164,0.0043967874,0.013810285,0.033617035,-0.02470643,-0.009840283,0.035579976,0.015476585,-0.006850813,0.0032304348,-0.07339908,0.03433462,0.014048452,-0.026712922,-0.03901788,-0.013581291,0.02192248,0.023104532,0.0046202447,0.0055488944,-0.0008196425,-0.0018616423,-0.01356478,-0.006982834,0.024881547,0.06965729,-0.07684038,-0.009898122,-0.0055882046,-0.02807932,-0.056875765,-0.033866264,0.031267628,-0.064897805,-0.051733933,-0.013729868,0.0005091104,-0.06069014,0.012686442,-0.026566725,0.016470723,0.0135194445,0.0017933049,0.051074117,-0.033160277,0.021420911,-0.049641404,0.017512677,-0.017745135,-0.04741292,-0.046932418,-0.018100405,-0.02924233,-0.018829046,-0.021699715,-0.02619809,0.006928921,-0.0027049123,-0.042783845,0.053929694,-0.040700432,0.047500126,0.020774608,0.008364544,-0.08641397,-0.047701776,-0.051038545,0.028002836,-0.040094387,-0.018150374,0.028090693,0.004561606,0.011481675,0.019827943,0.018681046,-0.067893445,-0.03878507,-0.010837465,-0.014695627,0.041171324,0.0002007581,0.049968686,-0.04273127,-0.018335888,0.036589574,-0.039416846,0.06993993,-0.022006314,0.00069647527,-0.04335995,-0.018164527,0.04932399,-0.09922426,0.018106911,0.040609516,-0.008348289,0.006039676,-0.08020844,-0.033538707,0.031796783,0.043962814,0.03936151,-0.055006836,-0.054194674,0.04313355,0.009176173,0.02709295,0.079076976,-0.008467466,0.0317231,-0.04138689,-0.021221269,-0.02971782,0.00026241242,-0.048321594,0.014354837,-0.009180975,0.045089513,0.017216662,-0.021064814,0.023258379,-0.013998081,3.1911682e-07,0.015279432,0.066524714,0.002108011,-0.009339255,0.08309617,-0.00020962446,0.009110222,-0.040859498,-0.025377251,-0.03197576,0.027758565,-0.06302262,0.030003088,-0.03331396,0.0124162445,-0.04878264,0.030200657,0.013428262,-0.02935906,-0.021136042,0.057221547,-0.0118375365,0.031243274,-0.023371609,0.038789406,0.02135018,0.019035062,-0.04210805,0.025438646,-0.0077901143,-0.02744934,-0.0030573187,0.0122013,-0.04732902,-0.025586976,-0.027850926,-0.024118068,0.11142666,-0.05568911,0.0494764,0.041304484,-0.053561196,0.029071245,-0.056430187,0.025881397,-0.010867776,-0.017189289,0.0033802039,0.004458607,-0.031912968,0.034431305,0.027977923,-0.017731056,0.042903874,0.026856957,0.018891841,0.0029796043,0.0008497989,0.035857406,0.07336669,-0.03389446,0.0037064506,0.04117111,-0.009381245,-0.015177205,-0.012668545,-0.006422884,2.9029118e-34,-0.014456557,-0.017058961,0.014601341,-0.057682376,0.03869692,-0.03092401,0.033634484,0.005934952,0.031076284,0.0068836845,-0.027961103
